{"learner":{"attributes":{"best_iteration":"135","best_score":"0.25800368193537","scikit_learn":"{\"_estimator_type\": \"classifier\"}"},"feature_names":[],"feature_types":[],"gradient_booster":{"model":{"cats":{"enc":[],"feature_segments":[],"sorted_idx":[]},"gbtree_model_param":{"num_parallel_tree":"1","num_trees":"498"},"iteration_indptr":[0,3,6,9,12,15,18,21,24,27,30,33,36,39,42,45,48,51,54,57,60,63,66,69,72,75,78,81,84,87,90,93,96,99,102,105,108,111,114,117,120,123,126,129,132,135,138,141,144,147,150,153,156,159,162,165,168,171,174,177,180,183,186,189,192,195,198,201,204,207,210,213,216,219,222,225,228,231,234,237,240,243,246,249,252,255,258,261,264,267,270,273,276,279,282,285,288,291,294,297,300,303,306,309,312,315,318,321,324,327,330,333,336,339,342,345,348,351,354,357,360,363,366,369,372,375,378,381,384,387,390,393,396,399,402,405,408,411,414,417,420,423,426,429,432,435,438,441,444,447,450,453,456,459,462,465,468,471,474,477,480,483,486,489,492,495,498],"tree_info":[0,1,2,0,1,2,0,1,2,0,1,2,0,1,2,0,1,2,0,1,2,0,1,2,0,1,2,0,1,2,0,1,2,0,1,2,0,1,2,0,1,2,0,1,2,0,1,2,0,1,2,0,1,2,0,1,2,0,1,2,0,1,2,0,1,2,0,1,2,0,1,2,0,1,2,0,1,2,0,1,2,0,1,2,0,1,2,0,1,2,0,1,2,0,1,2,0,1,2,0,1,2,0,1,2,0,1,2,0,1,2,0,1,2,0,1,2,0,1,2,0,1,2,0,1,2,0,1,2,0,1,2,0,1,2,0,1,2,0,1,2,0,1,2,0,1,2,0,1,2,0,1,2,0,1,2,0,1,2,0,1,2,0,1,2,0,1,2,0,1,2,0,1,2,0,1,2,0,1,2,0,1,2,0,1,2,0,1,2,0,1,2,0,1,2,0,1,2,0,1,2,0,1,2,0,1,2,0,1,2,0,1,2,0,1,2,0,1,2,0,1,2,0,1,2,0,1,2,0,1,2,0,1,2,0,1,2,0,1,2,0,1,2,0,1,2,0,1,2,0,1,2,0,1,2,0,1,2,0,1,2,0,1,2,0,1,2,0,1,2,0,1,2,0,1,2,0,1,2,0,1,2,0,1,2,0,1,2,0,1,2,0,1,2,0,1,2,0,1,2,0,1,2,0,1,2,0,1,2,0,1,2,0,1,2,0,1,2,0,1,2,0,1,2,0,1,2,0,1,2,0,1,2,0,1,2,0,1,2,0,1,2,0,1,2,0,1,2,0,1,2,0,1,2,0,1,2,0,1,2,0,1,2,0,1,2,0,1,2,0,1,2,0,1,2,0,1,2,0,1,2,0,1,2,0,1,2,0,1,2,0,1,2,0,1,2,0,1,2,0,1,2,0,1,2,0,1,2,0,1,2,0,1,2,0,1,2,0,1,2,0,1,2,0,1,2,0,1,2,0,1,2,0,1,2,0,1,2,0,1,2,0,1,2,0,1,2,0,1,2,0,1,2,0,1,2,0,1,2,0,1,2,0,1,2,0,1,2,0,1,2,0,1,2,0,1,2,0,1,2,0,1,2,0,1,2,0,1,2,0,1,2,0,1,2,0,1,2],"trees":[{"base_weights":[2.040812E-2,-5.709343E-1,1.0807453E0,-6.877471E-1,1.9999997E-1,-2.1428574E-2,1.2281879E0,-1.2772424E-9,-3.609959E-2,3.6206897E-2,-2.4000002E-2,-1.2772424E-9,1.3357664E0,2.142857E-2,6.96E-2],"categories":[],"categories_nodes":[],"categories_segments":[],"categories_sizes":[],"default_left":[0,0,0,0,0,0,0,0,0,0,0,0,0,0,0],"id":0,"left_children":[1,3,5,7,9,-1,11,-1,-1,-1,-1,-1,13,-1,-1],"loss_changes":[3.134113E1,3.029314E0,4.5073147E0,6.620636E-1,2.1296554E0,0E0,2.1874313E0,0E0,0E0,0E0,0E0,0E0,1.7998886E-1,0E0,0E0],"parents":[2147483647,0,0,1,1,2,2,3,3,4,4,6,6,12,12],"right_children":[2,4,6,8,10,-1,12,-1,-1,-1,-1,-1,14,-1,-1],"split_conditions":[8.672173E-1,5.559564E-1,1.8839529E-1,-1.8792276E0,-2.565115E-3,-2.1428574E-2,-4.7164264E-1,-1.2772424E-9,-3.609959E-2,3.6206897E-2,-2.4000002E-2,-1.2772424E-9,-1.6437234E0,2.142857E-2,6.96E-2],"split_indices":[12,252,3,10,2,0,7,0,0,0,0,0,20,0,0],"split_type":[0,0,0,0,0,0,0,0,0,0,0,0,0,0,0],"sum_hessian":[4.7999996E1,3.1111109E1,1.6888887E1,2.7111109E1,3.9999998E0,1.3333333E0,1.5555554E1,1.3333333E0,2.5777777E1,2.222222E0,1.7777777E0,1.3333333E0,1.4222221E1,1.3333333E0,1.2888888E1],"tree_param":{"num_deleted":"0","num_feature":"263","num_nodes":"15","size_leaf_vector":"1"}},{"base_weights":[-3.018113E-2,7.080745E-2,-7.043479E-1,-1.2772424E-9,-3.6486488E-2],"categories":[],"categories_nodes":[],"categories_segments":[],"categories_sizes":[],"default_left":[0,0,0,0,0],"id":1,"left_children":[1,-1,3,-1,-1],"loss_changes":[5.4842865E1,0E0,6.853123E-1,0E0,0E0],"parents":[2147483647,0,0,2,2],"right_children":[2,-1,4,-1,-1],"split_conditions":[-5.4359204E-1,7.080745E-2,3.027539E-1,-1.2772424E-9,-3.6486488E-2],"split_indices":[12,0,8,0,0],"split_type":[0,0,0,0,0],"sum_hessian":[5.4222218E1,1.6888887E1,3.7333332E1,1.3333333E0,3.5999996E1],"tree_param":{"num_deleted":"0","num_feature":"263","num_nodes":"5","size_leaf_vector":"1"}},{"base_weights":[-2.9469592E-2,-3.5635363E-2,3.382789E-1,1.0677966E0,-4.4378704E-1,-2.1428574E-2,1.2E0,3E-2,-5.882354E-1,-1.2772424E-9,1.2941177E0,-3.4962412E-2,5.1724124E-3,6.992482E-2,2.0689655E-2],"categories":[],"categories_nodes":[],"categories_segments":[],"categories_sizes":[],"default_left":[0,0,0,0,0,0,0,0,0,0,0,0,0,0,0],"id":2,"left_children":[1,-1,3,5,7,-1,9,-1,11,-1,13,-1,-1,-1,-1],"loss_changes":[1.445122E1,0E0,2.1837086E1,4.4048424E0,3.1841278E0,0E0,2.0705872E0,0E0,1.3776941E0,0E0,9.833889E-1,0E0,0E0,0E0,0E0],"parents":[2147483647,0,0,2,2,3,3,4,4,6,6,8,8,10,10],"right_children":[2,-1,4,6,8,-1,10,-1,12,-1,14,-1,-1,-1,-1],"split_conditions":[-5.4359204E-1,-3.5635363E-2,8.672173E-1,-1.8544207E0,1.898839E-1,-2.1428574E-2,3.027539E-1,3E-2,2.3347392E0,-1.2772424E-9,1.7485261E-1,-3.4962412E-2,5.1724124E-3,6.992482E-2,2.0689655E-2],"split_indices":[12,0,12,58,13,0,8,0,72,0,7,0,0,0,0],"split_type":[0,0,0,0,0,0,0,0,0,0,0,0,0,0,0],"sum_hessian":[5.5555553E1,1.911111E1,3.6444443E1,1.8666666E1,1.7777777E1,1.3333333E0,1.7333332E1,1.7777777E0,1.5999999E1,1.3333333E0,1.5999999E1,1.3777777E1,2.222222E0,1.3777777E1,2.222222E0],"tree_param":{"num_deleted":"0","num_feature":"263","num_nodes":"15","size_leaf_vector":"1"}},{"base_weights":[5.8538068E-2,-5.43944E-1,1.0575238E0,4.1909628E-2,-3.5518944E-2,-2.778621E-1,1.2723706E0,-2.973914E-2,7.251661E-1,-3.9073933E-4,-2.149574E-2,2.0510966E-2,6.590205E-2,3.035073E-4,5.0826974E-2],"categories":[],"categories_nodes":[],"categories_segments":[],"categories_sizes":[],"default_left":[0,0,0,0,0,0,0,0,0,0,0,0,0,0,0],"id":3,"left_children":[1,3,5,7,-1,9,11,-1,13,-1,-1,-1,-1,-1,-1],"loss_changes":[3.3045097E1,3.3755026E0,6.273882E0,4.1445146E0,0E0,1.4777124E-1,1.6627312E-1,0E0,9.509125E-1,0E0,0E0,0E0,0E0,0E0,0E0],"parents":[2147483647,0,0,1,1,2,2,3,3,5,5,6,6,8,8],"right_children":[2,4,6,8,-1,10,12,-1,14,-1,-1,-1,-1,-1,-1],"split_conditions":[8.672173E-1,-1.1288456E0,-1.5213168E0,-1.9928241E-1,-3.5518944E-2,-9.4196147E-1,-1.6437234E0,-2.973914E-2,-4.881297E-1,-3.9073933E-4,-2.149574E-2,2.0510966E-2,6.590205E-2,3.035073E-4,5.0826974E-2],"split_indices":[12,66,43,38,0,0,20,0,33,0,0,0,0,0,0],"split_type":[0,0,0,0,0,0,0,0,0,0,0,0,0,0,0],"sum_hessian":[5.2948208E1,3.3312904E1,1.9635302E1,7.535613E0,2.5777292E1,2.6806083E0,1.6954693E1,3.9677522E0,3.5678608E0,1.3443763E0,1.3362321E0,1.3551276E0,1.5599566E1,1.3231703E0,2.2446904E0],"tree_param":{"num_deleted":"0","num_feature":"263","num_nodes":"15","size_leaf_vector":"1"}},{"base_weights":[-3.7344217E-2,6.584538E-2,-6.8822056E-1,5.624174E-4,-3.5773832E-2],"categories":[],"categories_nodes":[],"categories_segments":[],"categories_sizes":[],"default_left":[0,0,0,0,0],"id":4,"left_children":[1,-1,3,-1,-1],"loss_changes":[4.6347256E1,0E0,6.8437004E-1,0E0,0E0],"parents":[2147483647,0,0,2,2],"right_children":[2,-1,4,-1,-1],"split_conditions":[-5.4359204E-1,6.584538E-2,-8.9843625E-1,5.624174E-4,-3.5773832E-2],"split_indices":[12,0,41,0,0],"split_type":[0,0,0,0,0],"sum_hessian":[5.0552456E1,1.607746E1,3.4474995E1,1.3150243E0,3.3159973E1],"tree_param":{"num_deleted":"0","num_feature":"263","num_nodes":"5","size_leaf_vector":"1"}},{"base_weights":[1.3900903E-2,3.5118303E-1,-3.465538E-2,9.7936386E-1,-3.51271E-1,1.1978092E0,-8.543865E-2,6.427198E-1,-6.162765E-1,4.8281802E-4,6.5334305E-2,-2.4168415E-2,2.1288825E-2,4.719413E-2,2.1691996E-4,-3.4054913E-2,3.258005E-4],"categories":[],"categories_nodes":[],"categories_segments":[],"categories_sizes":[],"default_left":[0,0,0,0,0,0,0,0,0,0,0,0,0,0,0,0,0],"id":5,"left_children":[1,3,-1,5,7,9,11,13,15,-1,-1,-1,-1,-1,-1,-1,-1],"loss_changes":[1.2334073E1,1.5784296E1,0E0,4.460327E0,4.9412327E0,2.0071259E0,1.0444988E0,7.882824E-1,5.7500744E-1,0E0,0E0,0E0,0E0,0E0,0E0,0E0,0E0],"parents":[2147483647,0,0,1,1,3,3,4,4,5,5,6,6,7,7,8,8],"right_children":[2,4,-1,6,8,10,12,14,16,-1,-1,-1,-1,-1,-1,-1,-1],"split_conditions":[3.8597725E-2,8.672173E-1,-3.465538E-2,2.1229996E-1,-7.253846E-1,-1.8544207E0,-5.22381E-1,9.385076E-2,1.0351553E0,4.8281802E-4,6.5334305E-2,-2.4168415E-2,2.1288825E-2,4.719413E-2,2.1691996E-4,-3.4054913E-2,3.258005E-4],"split_indices":[23,12,0,7,42,58,42,7,33,0,0,0,0,0,0,0,0],"split_type":[0,0,0,0,0,0,0,0,0,0,0,0,0,0,0,0,0],"sum_hessian":[4.970283E1,3.399068E1,1.571215E1,1.773588E1,1.62548E1,1.4613079E1,3.1228018E0,3.1214528E0,1.31333475E1,1.3180565E0,1.3295022E1,1.7865915E0,1.3362103E0,1.795739E0,1.3257136E0,1.1810467E1,1.3228807E0],"tree_param":{"num_deleted":"0","num_feature":"263","num_nodes":"17","size_leaf_vector":"1"}},{"base_weights":[1.16625745E-2,7.2696453E-1,-3.5030246E-2,-2.744112E-1,1.0899028E0,-3.092048E-2,3.9285738E-2,1.2067007E0,2.4888757E-1,1.9389978E-2,6.2650055E-2,-2.0762546E-2,3.906856E-2],"categories":[],"categories_nodes":[],"categories_segments":[],"categories_sizes":[],"default_left":[0,0,0,0,0,0,0,0,0,0,0,0,0],"id":6,"left_children":[1,3,-1,5,7,-1,-1,9,11,-1,-1,-1,-1],"loss_changes":[2.7642517E1,1.0134488E1,0E0,3.402621E0,1.6705456E0,0E0,0E0,1.722107E-1,1.6352487E0,0E0,0E0,0E0,0E0],"parents":[2147483647,0,0,1,1,3,3,4,4,7,7,8,8],"right_children":[2,4,-1,6,8,-1,-1,10,12,-1,-1,-1,-1],"split_conditions":[-3.7106803E-1,-1.2782665E-1,-3.5030246E-2,2.4409788E0,7.1248E-1,-3.092048E-2,3.9285738E-2,-1.1553603E0,1.2013106E0,1.9389978E-2,6.2650055E-2,-2.0762546E-2,3.906856E-2],"split_indices":[16,18,0,25,2,0,0,56,18,0,0,0,0],"split_type":[0,0,0,0,0,0,0,0,0,0,0,0,0],"sum_hessian":[5.2256E1,2.6062166E1,2.6193832E1,6.9980116E0,1.9064156E1,5.598144E0,1.3998675E0,1.6357637E1,2.706518E0,1.3770946E0,1.4980542E1,1.3023404E0,1.4041777E0],"tree_param":{"num_deleted":"0","num_feature":"263","num_nodes":"13","size_leaf_vector":"1"}},{"base_weights":[4.6105243E-2,6.2484633E-2,-6.750064E-1,-3.5156906E-2,8.4196235E-4],"categories":[],"categories_nodes":[],"categories_segments":[],"categories_sizes":[],"default_left":[0,0,0,0,0],"id":7,"left_children":[1,-1,3,-1,-1],"loss_changes":[4.711983E1,0E0,6.734066E-1,0E0,0E0],"parents":[2147483647,0,0,2,2],"right_children":[2,-1,4,-1,-1],"split_conditions":[-5.4359204E-1,6.2484633E-2,1.1606131E0,-3.5156906E-2,8.4196235E-4],"split_indices":[12,0,232,0,0],"split_type":[0,0,0,0,0],"sum_hessian":[5.2318546E1,1.932714E1,3.2991405E1,3.1686646E1,1.3047588E0],"tree_param":{"num_deleted":"0","num_feature":"263","num_nodes":"5","size_leaf_vector":"1"}},{"base_weights":[-1.1140694E-2,-3.411328E-2,3.2383358E-1,9.87027E-1,-3.105841E-1,1.1300514E0,-2.0497596E-2,-6.0790116E-1,5.7391626E-1,1.0247927E-2,6.1947603E-2,-3.369866E-2,1.037396E-3,-2.037357E-2,5.0837565E-2],"categories":[],"categories_nodes":[],"categories_segments":[],"categories_sizes":[],"default_left":[0,0,0,0,0,0,0,0,0,0,0,0,0,0,0],"id":8,"left_children":[1,-1,3,5,7,9,-1,11,13,-1,-1,-1,-1,-1,-1],"loss_changes":[1.1377222E1,0E0,1.4519676E1,3.81102E0,5.0892477E0,1.3041039E0,0E0,5.9451437E-1,2.6086566E0,0E0,0E0,0E0,0E0,0E0,0E0],"parents":[2147483647,0,0,2,2,3,3,4,4,5,5,7,7,8,8],"right_children":[2,-1,4,6,8,10,-1,12,14,-1,-1,-1,-1,-1,-1],"split_conditions":[-5.4359204E-1,-3.411328E-2,4.4753158E-1,1.2776392E0,-5.2823526E-1,-1.7204744E0,-2.0497596E-2,1.6585866E0,-1.2106581E-1,1.0247927E-2,6.1947603E-2,-3.369866E-2,1.037396E-3,-2.037357E-2,5.0837565E-2],"split_indices":[12,0,253,14,16,64,0,5,0,0,0,0,0,0,0],"split_type":[0,0,0,0,0,0,0,0,0,0,0,0,0,0,0],"sum_hessian":[4.8625465E1,1.5844352E1,3.2781113E1,1.5755344E1,1.702577E1,1.446543E1,1.2899139E0,1.2976538E1,4.049232E0,1.8270453E0,1.2638385E1,1.1677154E1,1.299384E0,1.2838621E0,2.76537E0],"tree_param":{"num_deleted":"0","num_feature":"263","num_nodes":"15","size_leaf_vector":"1"}},{"base_weights":[1.5918612E-2,7.204334E-1,-3.4450255E-2,-4.0683857E-1,9.476563E-1,5.10942E-4,-2.7295524E-2,1.0429202E0,-6.2603294E-3,1.1085202E0,1.0676565E-2,2.7190426E-2,5.94587E-2],"categories":[],"categories_nodes":[],"categories_segments":[],"categories_sizes":[],"default_left":[0,0,0,0,0,0,0,0,0,0,0,0,0],"id":9,"left_children":[1,3,-1,5,7,-1,-1,9,-1,11,-1,-1,-1],"loss_changes":[2.7284283E1,7.4208384E0,0E0,3.1340438E-1,2.4975624E0,0E0,0E0,9.2640877E-1,0E0,2.4475288E-1,0E0,0E0,0E0],"parents":[2147483647,0,0,1,1,3,3,4,4,7,7,9,9],"right_children":[2,4,-1,6,8,-1,-1,10,-1,12,-1,-1,-1],"split_conditions":[-3.7106803E-1,-1.5213168E0,-3.4450255E-2,5.006368E-2,1.0468181E0,5.10942E-4,-2.7295524E-2,-1.012827E-2,-6.2603294E-3,-2.5363553E-1,1.0676565E-2,2.7190426E-2,5.94587E-2],"split_indices":[16,43,0,85,46,0,0,24,0,26,0,0,0],"split_type":[0,0,0,0,0,0,0,0,0,0,0,0,0],"sum_hessian":[5.293944E1,2.6466396E1,2.6473045E1,4.307255E0,2.2159142E1,1.3088164E0,2.9984381E0,2.0377636E1,1.7815052E0,1.8572134E1,1.8055018E0,3.2886417E0,1.5283492E1],"tree_param":{"num_deleted":"0","num_feature":"263","num_nodes":"13","size_leaf_vector":"1"}},{"base_weights":[1.1158003E-2,5.8658596E-2,-6.618138E-1,-3.4550976E-2,1.242055E-3],"categories":[],"categories_nodes":[],"categories_segments":[],"categories_sizes":[],"default_left":[0,0,0,0,0],"id":10,"left_children":[1,-1,3,-1,-1],"loss_changes":[4.0118084E1,0E0,6.688795E-1,0E0,0E0],"parents":[2147483647,0,0,2,2],"right_children":[2,-1,4,-1,-1],"split_conditions":[-5.4359204E-1,5.8658596E-2,1.5825807E-1,-3.4550976E-2,1.242055E-3],"split_indices":[12,0,233,0,0],"split_type":[0,0,0,0,0],"sum_hessian":[4.9308872E1,1.7811192E1,3.1497679E1,3.0206541E1,1.2911382E0],"tree_param":{"num_deleted":"0","num_feature":"263","num_nodes":"5","size_leaf_vector":"1"}},{"base_weights":[2.4941498E-2,-3.3399805E-2,3.1422862E-1,9.4612974E-1,-4.120135E-1,1.064082E0,-2.1268355E-2,3.324222E-2,-6.1067367E-1,1.1493864E0,-1.1958544E-3,-4.6606185E-3,-3.3357915E-2,5.9683394E-2,1.841283E-2],"categories":[],"categories_nodes":[],"categories_segments":[],"categories_sizes":[],"default_left":[0,0,0,0,0,0,0,0,0,0,0,0,0,0,0],"id":11,"left_children":[1,-1,3,5,7,9,-1,-1,11,13,-1,-1,-1,-1,-1],"loss_changes":[1.0661604E1,0E0,1.7582115E1,3.7424107E0,4.2838926E0,1.7919388E0,0E0,0E0,4.0035486E-1,1.7090988E-1,0E0,0E0,0E0,0E0,0E0],"parents":[2147483647,0,0,2,2,3,3,4,4,5,5,8,8,9,9],"right_children":[2,-1,4,6,8,10,-1,-1,12,14,-1,-1,-1,-1,-1],"split_conditions":[-5.4359204E-1,-3.3399805E-2,8.672173E-1,2.426519E-1,-1.5213168E0,1.0724154E-1,-2.1268355E-2,3.324222E-2,-2.7696187E0,1.3856766E0,-1.1958544E-3,-4.6606185E-3,-3.3357915E-2,5.9683394E-2,1.841283E-2],"split_indices":[12,0,12,7,43,222,0,0,69,38,0,0,0,0,0],"split_type":[0,0,0,0,0,0,0,0,0,0,0,0,0,0,0],"sum_hessian":[5.1139114E1,1.4676049E1,3.6463066E1,1.9336052E1,1.7127016E1,1.8011189E1,1.3248626E0,2.3020227E0,1.4824992E1,1.6649374E1,1.3618139E0,1.7198161E0,1.3105177E1,1.5256375E1,1.3929996E0],"tree_param":{"num_deleted":"0","num_feature":"263","num_nodes":"15","size_leaf_vector":"1"}},{"base_weights":[4.9040094E-2,-5.315878E-1,1.0052594E0,2.0276693E-1,-3.3897314E-2,-6.15319E-3,5.64892E-2,4.5251366E-2,-2.6056886E-2],"categories":[],"categories_nodes":[],"categories_segments":[],"categories_sizes":[],"default_left":[0,0,0,0,0,0,0,0,0],"id":12,"left_children":[1,3,5,7,-1,-1,-1,-1,-1],"loss_changes":[2.7662813E1,3.4752998E0,2.7813663E0,3.4866104E0,0E0,0E0,0E0,0E0,0E0],"parents":[2147483647,0,0,1,1,2,2,3,3],"right_children":[2,4,6,8,-1,-1,-1,-1,-1],"split_conditions":[8.672173E-1,-1.1280024E0,1.898839E-1,-3.162042E-1,-3.3897314E-2,-6.15319E-3,5.64892E-2,4.5251366E-2,-2.6056886E-2],"split_indices":[12,81,13,44,0,0,0,0,0],"split_type":[0,0,0,0,0,0,0,0,0],"sum_hessian":[4.7861782E1,3.0055683E1,1.7806099E1,4.9306583E0,2.5125025E1,1.770972E0,1.6035128E1,2.3757443E0,2.554914E0],"tree_param":{"num_deleted":"0","num_feature":"263","num_nodes":"9","size_leaf_vector":"1"}},{"base_weights":[2.0177968E-2,5.5970456E-2,-6.549723E-1,2.0730325E-3,-3.410602E-2],"categories":[],"categories_nodes":[],"categories_segments":[],"categories_sizes":[],"default_left":[0,0,0,0,0],"id":13,"left_children":[1,-1,3,-1,-1],"loss_changes":[4.2023674E1,0E0,6.918707E-1,0E0,0E0],"parents":[2147483647,0,0,2,2],"right_children":[2,-1,4,-1,-1],"split_conditions":[-5.4359204E-1,5.5970456E-2,-1.2330898E0,2.0730325E-3,-3.410602E-2],"split_indices":[12,0,33,0,0],"split_type":[0,0,0,0,0],"sum_hessian":[5.4636604E1,2.0538797E1,3.4097805E1,1.2595384E0,3.283827E1],"tree_param":{"num_deleted":"0","num_feature":"263","num_nodes":"5","size_leaf_vector":"1"}},{"base_weights":[5.6946985E-2,3.916053E-1,-3.3002112E-2,-2.793975E-1,9.785068E-1,-5.3348696E-1,4.4547617E-2,1.1027064E0,-6.465291E-3,-6.951268E-2,-3.2534435E-2,5.741589E-2,1.7528523E-2,1.9055376E-2,-2.2234226E-2],"categories":[],"categories_nodes":[],"categories_segments":[],"categories_sizes":[],"default_left":[0,0,0,0,0,0,0,0,0,0,0,0,0,0,0],"id":14,"left_children":[1,3,-1,5,7,9,-1,11,-1,13,-1,-1,-1,-1,-1],"loss_changes":[1.2187234E1,1.3868462E1,0E0,5.4963737E0,2.7068481E0,7.4316645E-1,0E0,1.7593956E-1,0E0,8.530461E-1,0E0,0E0,0E0,0E0,0E0],"parents":[2147483647,0,0,1,1,3,3,4,4,5,5,7,7,9,9],"right_children":[2,4,-1,6,8,10,-1,12,-1,14,-1,-1,-1,-1,-1],"split_conditions":[3.8597725E-2,-1.2359686E0,-3.3002112E-2,1.325112E-1,-1.3570373E0,-8.5044485E-1,4.4547617E-2,8.8444567E-1,-6.465291E-3,1.858788E-1,-3.2534435E-2,5.741589E-2,1.7528523E-2,1.9055376E-2,-2.2234226E-2],"split_indices":[23,81,0,58,43,6,0,20,0,7,0,0,0,0,0],"split_type":[0,0,0,0,0,0,0,0,0,0,0,0,0,0,0],"sum_hessian":[4.871426E1,3.352167E1,1.5192588E1,1.5884693E1,1.7636978E1,1.34983015E1,2.3863919E0,1.5863132E1,1.7738463E0,3.0433784E0,1.0454923E1,1.4459529E1,1.4036038E0,1.3754723E0,1.667906E0],"tree_param":{"num_deleted":"0","num_feature":"263","num_nodes":"15","size_leaf_vector":"1"}},{"base_weights":[4.1619513E-2,-5.370074E-1,9.674346E-1,-6.1383235E-1,2.6313072E-1,-1.1823473E-3,1.0370408E0,-5.4454714E-2,-3.3577025E-2,-1.9194309E-2,3.7243407E-2,1.6458277E-2,5.371468E-2,-2.1843083E-2,1.9914271E-2],"categories":[],"categories_nodes":[],"categories_segments":[],"categories_sizes":[],"default_left":[0,0,0,0,0,0,0,0,0,0,0,0,0,0,0],"id":15,"left_children":[1,3,5,7,9,-1,11,13,-1,-1,-1,-1,-1,-1,-1],"loss_changes":[2.9304995E1,2.233717E0,1.4748592E0,9.659815E-1,1.424587E0,0E0,1.6498756E-1,8.652447E-1,0E0,0E0,0E0,0E0,0E0,0E0,0E0],"parents":[2147483647,0,0,1,1,2,2,3,3,4,4,6,6,7,7],"right_children":[2,4,6,8,10,-1,12,14,-1,-1,-1,-1,-1,-1,-1],"split_conditions":[8.672173E-1,2.0666602E-1,1.898839E-1,-1.1047153E0,-2.9395437E-1,-1.1823473E-3,-4.7160783E0,-3.410022E-1,-3.3577025E-2,-1.9194309E-2,3.7243407E-2,1.6458277E-2,5.371468E-2,-2.1843083E-2,1.9914271E-2],"split_indices":[12,191,13,64,18,0,74,38,0,0,0,0,0,0,0],"split_type":[0,0,0,0,0,0,0,0,0,0,0,0,0,0,0],"sum_hessian":[5.2734165E1,3.2710396E1,2.002377E1,3.0057299E1,2.6530986E0,1.3573647E0,1.8666405E1,2.9926367E0,2.7064663E1,1.218997E0,1.4341016E0,1.42498E0,1.7241425E1,1.6413459E0,1.3512908E0],"tree_param":{"num_deleted":"0","num_feature":"263","num_nodes":"15","size_leaf_vector":"1"}},{"base_weights":[3.947442E-2,8.502626E-1,-5.170472E-1,-9.283785E-3,9.8170614E-1,-6.3238484E-1,4.324079E-1,4.3231946E-1,5.2685153E-2,-3.323318E-2,1.5428904E-4,-3.290024E-4,3.3297714E-2,-3.701767E-4,3.33468E-2],"categories":[],"categories_nodes":[],"categories_segments":[],"categories_sizes":[],"default_left":[0,0,0,0,0,0,0,0,0,0,0,0,0,0,0],"id":16,"left_children":[1,3,5,-1,7,9,11,13,-1,-1,-1,-1,-1,-1,-1],"loss_changes":[2.242388E1,2.934062E0,3.50534E0,0E0,2.600956E-1,5.501814E-1,3.9302176E-1,3.961467E-1,0E0,0E0,0E0,0E0,0E0,0E0,0E0],"parents":[2147483647,0,0,1,1,2,2,4,4,5,5,6,6,7,7],"right_children":[2,4,6,-1,8,10,12,14,-1,-1,-1,-1,-1,-1,-1],"split_conditions":[-3.309057E-1,-1.7700378E0,-6.4295644E-1,-9.283785E-3,-5.463359E-1,8.819575E-1,5.466872E-1,6.8997204E-1,5.2685153E-2,-3.323318E-2,1.5428904E-4,-3.290024E-4,3.3297714E-2,-3.701767E-4,3.33468E-2],"split_indices":[15,10,52,0,66,36,2,5,0,0,0,0,0,0,0],"split_type":[0,0,0,0,0,0,0,0,0,0,0,0,0,0,0],"sum_hessian":[4.7721684E1,1.920882E1,2.8512863E1,2.1163976E0,1.7092422E1,2.5722145E1,2.7907174E0,2.7920249E0,1.4300398E1,2.4435026E1,1.287119E0,1.3065923E0,1.484125E0,1.308344E0,1.483681E0],"tree_param":{"num_deleted":"0","num_feature":"263","num_nodes":"15","size_leaf_vector":"1"}},{"base_weights":[3.752123E-2,-3.196523E-2,2.9029194E-1,8.470249E-1,-4.1945043E-1,4.730542E-3,9.371974E-1,3.7248176E-2,-5.8578265E-1,-1.9717189E-3,1.0225035E0,-3.2349464E-2,1.2687611E-3,5.3632665E-2,1.5160486E-2],"categories":[],"categories_nodes":[],"categories_segments":[],"categories_sizes":[],"default_left":[0,0,0,0,0,0,0,0,0,0,0,0,0,0,0],"id":17,"left_children":[1,-1,3,5,7,-1,9,-1,11,-1,13,-1,-1,-1,-1],"loss_changes":[8.189903E0,0E0,1.4087206E1,1.2551537E0,3.5247335E0,0E0,1.5045147E0,0E0,5.592809E-1,0E0,2.591362E-1,0E0,0E0,0E0,0E0],"parents":[2147483647,0,0,2,2,3,3,4,4,6,6,8,8,10,10],"right_children":[2,-1,4,6,8,-1,10,-1,12,-1,14,-1,-1,-1,-1],"split_conditions":[-5.4359204E-1,-3.196523E-2,8.672173E-1,-1.8544207E0,-7.400736E-1,4.730542E-3,-1.076921E0,3.7248176E-2,7.1248E-1,-1.9717189E-3,2.8712004E-1,-3.2349464E-2,1.2687611E-3,5.3632665E-2,1.5160486E-2],"split_indices":[12,0,12,58,42,0,33,0,2,0,206,0,0,0,0],"split_type":[0,0,0,0,0,0,0,0,0,0,0,0,0,0,0],"sum_hessian":[4.578651E1,1.20342045E1,3.3752304E1,1.880665E1,1.4945656E1,2.2319667E0,1.6574684E1,1.4332657E0,1.351239E1,1.3746496E0,1.5200034E1,1.222904E1,1.28335E0,1.3750104E1,1.4499297E0],"tree_param":{"num_deleted":"0","num_feature":"263","num_nodes":"15","size_leaf_vector":"1"}},{"base_weights":[-1.1056288E-1,5.060723E-1,-3.299031E-2,-2.87244E-1,7.4774927E-1,1.8041216E-2,-2.770157E-2,8.869043E-1,8.6327456E-2,5.2082922E-2,-7.0914896E-3,-2.3450172E-2,3.288834E-2],"categories":[],"categories_nodes":[],"categories_segments":[],"categories_sizes":[],"default_left":[0,0,0,0,0,0,0,0,0,0,0,0,0],"id":18,"left_children":[1,3,-1,5,7,-1,-1,9,11,-1,-1,-1,-1],"loss_changes":[1.6363918E1,4.598267E0,0E0,1.2478617E0,1.5619421E0,0E0,0E0,2.4720545E0,1.6419992E0,0E0,0E0,0E0,0E0],"parents":[2147483647,0,0,1,1,3,3,4,4,7,7,8,8],"right_children":[2,4,-1,6,8,-1,-1,10,12,-1,-1,-1,-1],"split_conditions":[-3.7106803E-1,-7.237342E-1,-3.299031E-2,-5.0094104E-1,-6.9107926E-1,1.8041216E-2,-2.770157E-2,5.851201E-1,-4.682924E-1,5.2082922E-2,-7.0914896E-3,-2.3450172E-2,3.288834E-2],"split_indices":[16,42,0,74,92,0,0,64,9,0,0,0,0],"split_type":[0,0,0,0,0,0,0,0,0,0,0,0,0],"sum_hessian":[4.6330456E1,2.1863226E1,2.446723E1,5.061164E0,1.6802061E1,1.3731322E0,3.6880317E0,1.3599902E1,3.202159E0,1.1810645E1,1.7892568E0,1.71488E0,1.487279E0],"tree_param":{"num_deleted":"0","num_feature":"263","num_nodes":"13","size_leaf_vector":"1"}},{"base_weights":[-4.973706E-3,5.0954517E-2,-6.3303685E-1,-3.3068433E-2,1.9634634E-3],"categories":[],"categories_nodes":[],"categories_segments":[],"categories_sizes":[],"default_left":[0,0,0,0,0],"id":19,"left_children":[1,-1,3,-1,-1],"loss_changes":[3.3681816E1,0E0,6.4416504E-1,0E0,0E0],"parents":[2147483647,0,0,2,2],"right_children":[2,-1,4,-1,-1],"split_conditions":[-5.4359204E-1,5.0954517E-2,5.9263664E-1,-3.3068433E-2,1.9634634E-3],"split_indices":[12,0,91,0,0],"split_type":[0,0,0,0,0],"sum_hessian":[5.0364872E1,1.8909739E1,3.1455133E1,3.0198786E1,1.2563472E0],"tree_param":{"num_deleted":"0","num_feature":"263","num_nodes":"5","size_leaf_vector":"1"}},{"base_weights":[4.4509745E-3,-3.1964492E-2,2.8786522E-1,7.5131017E-1,-3.9433447E-1,8.802799E-1,-1.1709529E-2,2.6272997E-2,-5.6466794E-1,2.2265788E-3,9.9159676E-1,-3.170566E-2,2.7662544E-3,1.583341E-2,5.171153E-2],"categories":[],"categories_nodes":[],"categories_segments":[],"categories_sizes":[],"default_left":[0,0,0,0,0,0,0,0,0,0,0,0,0,0,0],"id":20,"left_children":[1,-1,3,5,7,9,-1,-1,11,-1,13,-1,-1,-1,-1],"loss_changes":[9.26154E0,0E0,1.1436274E1,2.9166489E0,2.6325889E0,1.7297945E0,0E0,0E0,5.9746504E-1,0E0,1.5532684E-1,0E0,0E0,0E0,0E0],"parents":[2147483647,0,0,2,2,3,3,4,4,5,5,8,8,10,10],"right_children":[2,-1,4,6,8,10,-1,-1,12,-1,14,-1,-1,-1,-1],"split_conditions":[-5.4359204E-1,-3.1964492E-2,8.672173E-1,1.7485261E-1,-7.253846E-1,-7.0900375E-1,-1.1709529E-2,2.6272997E-2,7.200243E-1,2.2265788E-3,-1.2330898E0,-3.170566E-2,2.7662544E-3,1.583341E-2,5.171153E-2],"split_indices":[12,0,12,7,42,52,0,0,48,0,33,0,0,0,0],"split_type":[0,0,0,0,0,0,0,0,0,0,0,0,0,0,0],"sum_hessian":[4.8754696E1,1.4519579E1,3.423512E1,2.032574E1,1.3909377E1,1.8068003E1,2.2577398E0,1.8475869E0,1.206179E1,2.2882495E0,1.5779753E1,1.0826358E1,1.2354324E0,1.4382775E0,1.4341475E1],"tree_param":{"num_deleted":"0","num_feature":"263","num_nodes":"15","size_leaf_vector":"1"}},{"base_weights":[4.8974752E-2,-5.027304E-1,7.8891766E-1,2.8655913E-1,-6.185435E-1,8.8587666E-1,-2.1138137E-2,-2.0572929E-2,3.9655425E-2,-8.082594E-3,-3.251972E-2,-1.1764637E-3,4.752753E-2],"categories":[],"categories_nodes":[],"categories_segments":[],"categories_sizes":[],"default_left":[0,0,0,0,0,0,0,0,0,0,0,0,0],"id":21,"left_children":[1,3,5,7,9,11,-1,-1,-1,-1,-1,-1,-1],"loss_changes":[2.1142145E1,2.894218E0,2.9703503E0,1.9127083E0,2.7666283E-1,1.2446175E0,0E0,0E0,0E0,0E0,0E0,0E0,0E0],"parents":[2147483647,0,0,1,1,2,2,3,3,4,4,5,5],"right_children":[2,4,6,8,10,12,-1,-1,-1,-1,-1,-1,-1],"split_conditions":[8.672173E-1,-7.0900375E-1,-3.7106803E-1,3.6127973E-2,-1.6912081E0,-7.4496907E-1,-2.1138137E-2,-2.0572929E-2,3.9655425E-2,-8.082594E-3,-3.251972E-2,-1.1764637E-3,4.752753E-2],"split_indices":[12,52,16,13,4,42,0,0,0,0,0,0,0],"split_type":[0,0,0,0,0,0,0,0,0,0,0,0,0],"sum_hessian":[4.9818203E1,2.872287E1,2.1095335E1,3.4866087E0,2.5236261E1,1.9781315E1,1.3140199E0,1.5451446E0,1.9414642E0,2.0405407E0,2.319572E1,1.3556178E0,1.8425697E1],"tree_param":{"num_deleted":"0","num_feature":"263","num_nodes":"13","size_leaf_vector":"1"}},{"base_weights":[-6.704126E-3,-5.991805E-1,4.8996042E-2,1.6751697E-2,-3.2643475E-2],"categories":[],"categories_nodes":[],"categories_segments":[],"categories_sizes":[],"default_left":[0,0,0,0,0],"id":22,"left_children":[1,3,-1,-1,-1],"loss_changes":[2.9524727E1,1.8012199E0,0E0,0E0,0E0],"parents":[2147483647,0,0,1,1],"right_children":[2,4,-1,-1,-1],"split_conditions":[3.8597725E-2,-2.153336E0,4.8996042E-2,1.6751697E-2,-3.2643475E-2],"split_indices":[23,47,0,0,0],"split_type":[0,0,0,0,0],"sum_hessian":[4.850386E1,3.0550644E1,1.7953217E1,1.3755271E0,2.9175117E1],"tree_param":{"num_deleted":"0","num_feature":"263","num_nodes":"5","size_leaf_vector":"1"}},{"base_weights":[-1.7326675E-2,-3.1510342E-2,2.3403311E-1,7.190883E-1,-3.3958685E-1,8.160003E-1,-2.0864243E-2,-5.7430077E-1,4.7363234E-1,1.0065785E-1,9.499242E-1,-3.170809E-2,1.5596724E-3,-1.9170215E-2,4.480325E-2,3.4268357E-2,-2.324871E-2,1.4517041E-2,4.9730714E-2],"categories":[],"categories_nodes":[],"categories_segments":[],"categories_sizes":[],"default_left":[0,0,0,0,0,0,0,0,0,0,0,0,0,0,0,0,0,0,0],"id":23,"left_children":[1,-1,3,5,7,9,-1,11,13,15,17,-1,-1,-1,-1,-1,-1,-1,-1],"loss_changes":[8.230367E0,0E0,1.079973E1,2.6395597E0,3.719376E0,1.7796068E0,0E0,5.4417086E-1,2.0065126E0,1.7094752E0,1.9372463E-1,0E0,0E0,0E0,0E0,0E0,0E0,0E0,0E0],"parents":[2147483647,0,0,2,2,3,3,4,4,5,5,7,7,8,8,9,9,10,10],"right_children":[2,-1,4,6,8,10,-1,12,14,16,18,-1,-1,-1,-1,-1,-1,-1,-1],"split_conditions":[-5.4359204E-1,-3.1510342E-2,8.672173E-1,2.426519E-1,-5.2190995E-1,-7.0900375E-1,-2.0864243E-2,-4.06923E-2,9.047889E-1,-1.42132E-1,-8.948385E-1,-3.170809E-2,1.5596724E-3,-1.9170215E-2,4.480325E-2,3.4268357E-2,-2.324871E-2,1.4517041E-2,4.9730714E-2],"split_indices":[12,0,12,7,16,52,0,34,1,38,15,0,0,0,0,0,0,0,0],"split_type":[0,0,0,0,0,0,0,0,0,0,0,0,0,0,0,0,0,0,0],"sum_hessian":[5.1468018E1,1.4530853E1,3.6937164E1,1.9876188E1,1.7060978E1,1.8574083E1,1.3021052E0,1.3467685E1,3.593293E0,3.205231E0,1.5368852E1,1.221293E1,1.2547545E0,1.2168739E0,2.376419E0,1.4719512E0,1.7332797E0,1.4509511E0,1.3917901E1],"tree_param":{"num_deleted":"0","num_feature":"263","num_nodes":"19","size_leaf_vector":"1"}},{"base_weights":[1.046507E-2,-5.085952E-1,8.185443E-1,2.1413559E-1,-6.118714E-1,9.252141E-1,-2.0785619E-2,-2.2893215E-2,3.7736177E-2,1.6430694E-3,-3.215183E-2,1.52020035E-2,4.7947615E-2],"categories":[],"categories_nodes":[],"categories_segments":[],"categories_sizes":[],"default_left":[0,0,0,0,0,0,0,0,0,0,0,0,0],"id":24,"left_children":[1,3,5,7,9,11,-1,-1,-1,-1,-1,-1,-1],"loss_changes":[2.1677933E1,2.4808283E0,3.0452728E0,2.0445642E0,5.7981396E-1,1.04766846E-1,0E0,0E0,0E0,0E0,0E0,0E0,0E0],"parents":[2147483647,0,0,1,1,2,2,3,3,4,4,5,5],"right_children":[2,4,6,8,10,12,-1,-1,-1,-1,-1,-1,-1],"split_conditions":[8.672173E-1,-1.242132E0,-3.7106803E-1,-5.4602224E-1,-1.539202E0,-3.6916785E0,-2.0785619E-2,-2.2893215E-2,3.7736177E-2,1.6430694E-3,-3.215183E-2,1.52020035E-2,4.7947615E-2],"split_indices":[12,16,16,19,46,77,0,0,0,0,0,0,0],"split_type":[0,0,0,0,0,0,0,0,0,0,0,0,0],"sum_hessian":[4.9690277E1,3.048147E1,1.9208805E1,3.6769063E0,2.6804564E1,1.7911228E1,1.2975781E0,1.7074351E0,1.9694711E0,1.2334273E0,2.5571136E1,1.4384675E0,1.647276E1],"tree_param":{"num_deleted":"0","num_feature":"263","num_nodes":"13","size_leaf_vector":"1"}},{"base_weights":[-1.3829913E-3,4.6871345E-2,-6.1303943E-1,2.8606663E-3,-3.2167356E-2],"categories":[],"categories_nodes":[],"categories_segments":[],"categories_sizes":[],"default_left":[0,0,0,0,0],"id":25,"left_children":[1,-1,3,-1,-1],"loss_changes":[2.837343E1,0E0,6.445408E-1,0E0,0E0],"parents":[2147483647,0,0,2,2],"right_children":[2,-1,4,-1,-1],"split_conditions":[-5.4359204E-1,4.6871345E-2,-5.7529277E-1,2.8606663E-3,-3.2167356E-2],"split_indices":[12,0,49,0,0],"split_type":[0,0,0,0,0],"sum_hessian":[4.7410557E1,1.8493277E1,2.891728E1,1.212614E0,2.7704666E1],"tree_param":{"num_deleted":"0","num_feature":"263","num_nodes":"5","size_leaf_vector":"1"}},{"base_weights":[1.10084906E-1,-3.0441344E-2,3.4279805E-1,-2.9787203E-2,5.8900183E-1,8.2859E-1,3.824323E-2,8.906366E-1,6.8716034E-3,-2.8488616E-2,4.0199917E-2,4.6437E-2,1.3271244E-2],"categories":[],"categories_nodes":[],"categories_segments":[],"categories_sizes":[],"default_left":[0,0,0,0,0,0,0,0,0,0,0,0,0],"id":26,"left_children":[1,-1,3,-1,5,7,9,11,-1,-1,-1,-1,-1],"loss_changes":[8.045906E0,0E0,8.676271E0,0E0,3.800928E0,7.4349785E-1,5.0456204E0,1.9053745E-1,0E0,0E0,0E0,0E0,0E0],"parents":[2147483647,0,0,2,2,4,4,5,5,6,6,7,7],"right_children":[2,-1,4,-1,6,8,10,12,-1,-1,-1,-1,-1],"split_conditions":[-5.4359204E-1,-3.0441344E-2,-1.2763087E0,-2.9787203E-2,8.672173E-1,1.1163435E0,1.0803292E-1,1.8574307E0,6.8716034E-3,-2.8488616E-2,4.0199917E-2,4.6437E-2,1.3271244E-2],"split_indices":[12,0,16,0,12,35,40,53,0,0,0,0,0],"split_type":[0,0,0,0,0,0,0,0,0,0,0,0,0],"sum_hessian":[4.584513E1,1.0815869E1,3.5029263E1,6.9844494E0,2.8044813E1,1.9191692E1,8.853121E0,1.7345901E1,1.845792E0,5.0774894E0,3.775632E0,1.5891892E1,1.4540083E0],"tree_param":{"num_deleted":"0","num_feature":"263","num_nodes":"13","size_leaf_vector":"1"}},{"base_weights":[-1.6714498E-2,-4.7303438E-1,7.292372E-1,2.2027366E-2,-3.1602647E-2,-1.0612944E-2,8.637791E-1,-2.7113909E-2,6.0160494E-1,4.5612928E-2,1.072115E-2,4.003617E-2,1.2454026E-3],"categories":[],"categories_nodes":[],"categories_segments":[],"categories_sizes":[],"default_left":[0,0,0,0,0,0,0,0,0,0,0,0,0],"id":27,"left_children":[1,3,5,7,-1,-1,9,-1,11,-1,-1,-1,-1],"loss_changes":[1.7174755E1,2.476655E0,2.6102533E0,3.1297228E0,0E0,0E0,3.3832455E-1,0E0,5.2007747E-1,0E0,0E0,0E0,0E0],"parents":[2147483647,0,0,1,1,2,2,3,3,6,6,8,8],"right_children":[2,4,6,8,-1,-1,10,-1,12,-1,-1,-1,-1],"split_conditions":[8.672173E-1,-1.1288456E0,-1.5213168E0,-1.9928241E-1,-3.1602647E-2,-1.0612944E-2,3.778376E-1,-2.7113909E-2,4.4510353E-1,4.5612928E-2,1.072115E-2,4.003617E-2,1.2454026E-3],"split_indices":[12,66,43,38,0,0,38,0,75,0,0,0,0],"split_type":[0,0,0,0,0,0,0,0,0,0,0,0,0],"sum_hessian":[4.844232E1,3.0283133E1,1.815919E1,7.5718074E0,2.2711325E1,2.1983018E0,1.5960888E1,3.869057E0,3.7027504E0,1.4475329E1,1.4855587E0,2.4636505E0,1.2391E0],"tree_param":{"num_deleted":"0","num_feature":"263","num_nodes":"13","size_leaf_vector":"1"}},{"base_weights":[-1.589938E-1,4.4124804E-2,-6.0664004E-1,2.9666089E-3,-3.178462E-2],"categories":[],"categories_nodes":[],"categories_segments":[],"categories_sizes":[],"default_left":[0,0,0,0,0],"id":28,"left_children":[1,-1,3,-1,-1],"loss_changes":[2.0788574E1,0E0,6.3702774E-1,0E0,0E0],"parents":[2147483647,0,0,2,2],"right_children":[2,-1,4,-1,-1],"split_conditions":[-5.4359204E-1,4.4124804E-2,-1.2330898E0,2.9666089E-3,-3.178462E-2],"split_indices":[12,0,33,0,0],"split_type":[0,0,0,0,0],"sum_hessian":[4.244142E1,1.2466216E1,2.9975206E1,1.209411E0,2.8765795E1],"tree_param":{"num_deleted":"0","num_feature":"263","num_nodes":"5","size_leaf_vector":"1"}},{"base_weights":[1.0670823E-3,2.6298177E-1,-3.0706549E-2,-2.337443E-1,7.283159E-1,-4.0496105E-1,3.5990816E-2,-2.1783559E-2,8.7136E-1,2.1357382E-2,-5.573034E-1,4.75033E-2,-1.1232944E-3,-3.0988893E-2,1.3982151E-3],"categories":[],"categories_nodes":[],"categories_segments":[],"categories_sizes":[],"default_left":[0,0,0,0,0,0,0,0,0,0,0,0,0,0,0],"id":29,"left_children":[1,3,-1,5,7,9,-1,-1,11,-1,13,-1,-1,-1,-1],"loss_changes":[7.810512E0,8.028196E0,0E0,3.099729E0,3.3426208E0,2.167682E0,0E0,0E0,1.1596928E0,0E0,5.036502E-1,0E0,0E0,0E0,0E0],"parents":[2147483647,0,0,1,1,3,3,4,4,5,5,8,8,10,10],"right_children":[2,4,-1,6,8,10,-1,-1,12,-1,14,-1,-1,-1,-1],"split_conditions":[3.8597725E-2,-1.1280024E0,-3.0706549E-2,1.325112E-1,-3.4548116E0,-7.4496907E-1,3.5990816E-2,-2.1783559E-2,-1.3570373E0,2.1357382E-2,1.6585866E0,4.75033E-2,-1.1232944E-3,-3.0988893E-2,1.3982151E-3],"split_indices":[23,81,0,58,74,42,0,0,43,0,5,0,0,0,0],"split_type":[0,0,0,0,0,0,0,0,0,0,0,0,0,0,0],"sum_hessian":[4.6471203E1,3.2995995E1,1.3475206E1,1.6200392E1,1.6795605E1,1.4222063E1,1.9783283E0,1.6142578E0,1.5181346E1,1.921698E0,1.2300365E1,1.3894908E1,1.2864383E0,1.1060723E1,1.2396421E0],"tree_param":{"num_deleted":"0","num_feature":"263","num_nodes":"15","size_leaf_vector":"1"}},{"base_weights":[-5.2190956E-2,5.965979E-1,-5.651917E-1,7.332455E-1,-2.7096403E-1,2.3527374E-3,-5.975371E-1,8.2802606E-1,-5.456885E-3,-6.991548E-4,-2.0201344E-2,2.4726125E-4,-3.1445883E-2,9.821833E-6,4.4892833E-2],"categories":[],"categories_nodes":[],"categories_segments":[],"categories_sizes":[],"default_left":[0,0,0,0,0,0,0,0,0,0,0,0,0,0,0],"id":30,"left_children":[1,3,5,7,9,-1,11,13,-1,-1,-1,-1,-1,-1,-1],"loss_changes":[1.5333589E1,2.6149764E0,5.3657436E-1,1.517807E0,1.14156485E-1,0E0,4.6555424E-1,9.355421E-1,0E0,0E0,0E0,0E0,0E0,0E0,0E0],"parents":[2147483647,0,0,1,1,2,2,3,3,4,4,6,6,7,7],"right_children":[2,4,6,8,10,-1,12,14,-1,-1,-1,-1,-1,-1,-1],"split_conditions":[-5.279324E-1,1.1411183E0,-1.9563671E0,1.040946E0,1.983324E-1,2.3527374E-3,-1.5204846E0,-5.8648556E-1,-5.456885E-3,-6.991548E-4,-2.0201344E-2,2.4726125E-4,-3.1445883E-2,9.821833E-6,4.4892833E-2],"split_indices":[16,56,24,46,10,0,45,86,0,0,0,0,0,0,0],"split_type":[0,0,0,0,0,0,0,0,0,0,0,0,0,0,0],"sum_hessian":[4.405734E1,1.9382036E1,2.4675303E1,1.6878386E1,2.503652E0,1.2153791E0,2.3459923E1,1.5186699E1,1.6916856E0,1.2311157E0,1.2725364E0,1.2031322E0,2.225679E1,1.2594106E0,1.3927288E1],"tree_param":{"num_deleted":"0","num_feature":"263","num_nodes":"15","size_leaf_vector":"1"}},{"base_weights":[-4.5608077E-3,-5.966389E-1,4.3298617E-2,6.5926625E-4,-3.125086E-2],"categories":[],"categories_nodes":[],"categories_segments":[],"categories_sizes":[],"default_left":[0,0,0,0,0],"id":31,"left_children":[1,3,-1,-1,-1],"loss_changes":[2.3987274E1,4.8752403E-1,0E0,0E0,0E0],"parents":[2147483647,0,0,1,1],"right_children":[2,4,-1,-1,-1],"split_conditions":[3.8597725E-2,-1.8499956E0,4.3298617E-2,6.5926625E-4,-3.125086E-2],"split_indices":[23,35,0,0,0],"split_type":[0,0,0,0,0],"sum_hessian":[4.4536526E1,2.6695007E1,1.784152E1,1.2108223E0,2.5484184E1],"tree_param":{"num_deleted":"0","num_feature":"263","num_nodes":"5","size_leaf_vector":"1"}},{"base_weights":[1.7304622E-3,-3.025685E-2,2.4680372E-1,7.331909E-1,-3.2178968E-1,-6.156594E-3,8.215871E-1,-5.503351E-1,4.4369286E-1,4.4760045E-2,5.5604666E-3,-3.0488286E-2,1.8852303E-3,-1.8118208E-2,4.0964056E-2],"categories":[],"categories_nodes":[],"categories_segments":[],"categories_sizes":[],"default_left":[0,0,0,0,0,0,0,0,0,0,0,0,0,0,0],"id":32,"left_children":[1,-1,3,5,7,-1,9,11,13,-1,-1,-1,-1,-1,-1],"loss_changes":[7.6418924E0,0E0,1.0356854E1,1.6172686E0,3.317528E0,0E0,8.5664463E-1,5.113683E-1,1.6872914E0,0E0,0E0,0E0,0E0,0E0,0E0],"parents":[2147483647,0,0,2,2,3,3,4,4,6,6,7,7,8,8],"right_children":[2,-1,4,6,8,-1,10,12,14,-1,-1,-1,-1,-1,-1],"split_conditions":[-5.4359204E-1,-3.025685E-2,8.672173E-1,-1.8544207E0,-1.1456754E0,-6.156594E-3,1.8574307E0,1.6482177E0,-1.0868362E0,4.4760045E-2,5.5604666E-3,-3.0488286E-2,1.8852303E-3,-1.8118208E-2,4.0964056E-2],"split_indices":[12,0,12,58,81,0,53,53,2,0,0,0,0,0,0],"split_type":[0,0,0,0,0,0,0,0,0,0,0,0,0,0,0],"sum_hessian":[4.9377823E1,1.3781616E1,3.5596207E1,1.9028948E1,1.6567257E1,1.7437471E0,1.7285202E1,1.2974578E1,3.5926795E0,1.5426441E1,1.8587599E0,1.1750101E1,1.2244776E0,1.1531314E0,2.439548E0],"tree_param":{"num_deleted":"0","num_feature":"263","num_nodes":"15","size_leaf_vector":"1"}},{"base_weights":[-1.3406063E-2,-4.7668293E-1,6.5384614E-1,8.059779E-2,-5.846164E-1,8.2208127E-1,-6.585913E-2,2.845339E-2,-2.284362E-2,-3.0942837E-2,2.260463E-3,1.3233474E-2,4.2861063E-2,-2.6206989E-2,2.7692733E-2],"categories":[],"categories_nodes":[],"categories_segments":[],"categories_sizes":[],"default_left":[0,0,0,0,0,0,0,0,0,0,0,0,0,0,0],"id":33,"left_children":[1,3,5,7,9,11,13,-1,-1,-1,-1,-1,-1,-1,-1],"loss_changes":[1.5068732E1,1.7766643E0,2.4738379E0,1.7155865E0,5.5007553E-1,9.184933E-2,1.6285723E0,0E0,0E0,0E0,0E0,0E0,0E0,0E0,0E0],"parents":[2147483647,0,0,1,1,2,2,3,3,4,4,5,5,6,6],"right_children":[2,4,6,8,10,12,14,-1,-1,-1,-1,-1,-1,-1,-1],"split_conditions":[8.672173E-1,-7.0900375E-1,1.6084538E0,-2.498262E-1,1.3354515E0,-2.9302004E-1,3.8668847E-1,2.845339E-2,-2.284362E-2,-3.0942837E-2,2.260463E-3,1.3233474E-2,4.2861063E-2,-2.6206989E-2,2.7692733E-2],"split_indices":[12,52,53,64,45,78,45,0,0,0,0,0,0,0,0],"split_type":[0,0,0,0,0,0,0,0,0,0,0,0,0,0,0],"sum_hessian":[4.6738533E1,2.7754227E1,1.8984308E1,4.54432E0,2.3209906E1,1.5272119E1,3.7121897E0,2.3498826E0,2.1944375E0,2.2029684E1,1.1802217E0,1.4116433E0,1.3860476E1,2.2227101E0,1.4894795E0],"tree_param":{"num_deleted":"0","num_feature":"263","num_nodes":"15","size_leaf_vector":"1"}},{"base_weights":[-2.3130827E-2,-5.924125E-1,4.2430412E-2,-3.0985827E-2,2.715579E-4],"categories":[],"categories_nodes":[],"categories_segments":[],"categories_sizes":[],"default_left":[0,0,0,0,0],"id":34,"left_children":[1,3,-1,-1,-1],"loss_changes":[2.2852198E1,4.5769596E-1,0E0,0E0,0E0],"parents":[2147483647,0,0,1,1],"right_children":[2,4,-1,-1,-1],"split_conditions":[3.8597725E-2,6.6596645E-1,4.2430412E-2,-3.0985827E-2,2.715579E-4],"split_indices":[23,91,0,0,0],"split_type":[0,0,0,0,0],"sum_hessian":[4.4035355E1,2.683283E1,1.7202524E1,2.5625887E1,1.2069432E0],"tree_param":{"num_deleted":"0","num_feature":"263","num_nodes":"5","size_leaf_vector":"1"}},{"base_weights":[-4.86698E-2,2.2102097E-1,-3.006546E-2,-2.1062076E-1,6.3899064E-1,-4.7723463E-1,5.172197E-1,-4.595354E-2,7.72404E-1,-3.0324155E-2,1.5084559E-2,-4.7950536E-5,3.5079803E-2,1.2687956E-2,-1.7875297E-2,1.1256143E-2,4.3397043E-2],"categories":[],"categories_nodes":[],"categories_segments":[],"categories_sizes":[],"default_left":[0,0,0,0,0,0,0,0,0,0,0,0,0,0,0,0,0],"id":35,"left_children":[1,3,-1,5,7,9,11,13,15,-1,-1,-1,-1,-1,-1,-1,-1],"loss_changes":[6.729966E0,5.633198E0,0E0,3.3023484E0,1.4731035E0,1.395546E0,4.498403E-1,4.1833827E-1,4.9600458E-1,0E0,0E0,0E0,0E0,0E0,0E0,0E0,0E0],"parents":[2147483647,0,0,1,1,3,3,4,4,5,5,6,6,7,7,8,8],"right_children":[2,4,-1,6,8,10,12,14,16,-1,-1,-1,-1,-1,-1,-1,-1],"split_conditions":[3.8597725E-2,-5.279324E-1,-3.006546E-2,1.1282337E0,-1.2320951E0,7.4903905E-1,-2.0348136E0,2.9134676E-1,-1.1047153E0,-3.0324155E-2,1.5084559E-2,-4.7950536E-5,3.5079803E-2,1.2687956E-2,-1.7875297E-2,1.1256143E-2,4.3397043E-2],"split_indices":[23,16,0,56,47,46,79,12,64,0,0,0,0,0,0,0,0],"split_type":[0,0,0,0,0,0,0,0,0,0,0,0,0,0,0,0,0],"sum_hessian":[4.3263195E1,2.9477898E1,1.3785297E1,1.4745819E1,1.4732079E1,1.1044458E1,3.7013607E0,2.508581E0,1.2223497E1,9.662524E0,1.3819337E0,1.2324455E0,2.4689152E0,1.3731321E0,1.1354489E0,2.3155146E0,9.907984E0],"tree_param":{"num_deleted":"0","num_feature":"263","num_nodes":"17","size_leaf_vector":"1"}},{"base_weights":[-1.443832E-2,4.962733E-1,-3.0571667E-2,-4.0158466E-1,7.0831573E-1,1.7577009E-3,-2.6336804E-2,2.537337E-1,4.1993525E-2,-2.2139955E-2,3.2945063E-2],"categories":[],"categories_nodes":[],"categories_segments":[],"categories_sizes":[],"default_left":[0,0,0,0,0,0,0,0,0,0,0],"id":36,"left_children":[1,3,-1,5,7,-1,-1,9,-1,-1,-1],"loss_changes":[1.4780681E1,5.2616324E0,0E0,3.263905E-1,1.0732584E0,0E0,0E0,2.058614E0,0E0,0E0,0E0],"parents":[2147483647,0,0,1,1,3,3,4,4,7,7],"right_children":[2,4,-1,6,8,-1,-1,10,-1,-1,-1],"split_conditions":[-3.7106803E-1,-1.5213168E0,-3.0571667E-2,-5.4892445E-1,8.672173E-1,1.7577009E-3,-2.6336804E-2,-1.1234503E0,4.1993525E-2,-2.2139955E-2,3.2945063E-2],"split_indices":[16,43,0,49,12,0,0,37,0,0,0],"split_type":[0,0,0,0,0,0,0,0,0,0,0],"sum_hessian":[4.6483135E1,2.5142866E1,2.1340267E1,4.632679E0,2.0510187E1,1.1920189E0,3.44066E0,5.26072E0,1.5249467E1,1.9005542E0,3.3601658E0],"tree_param":{"num_deleted":"0","num_feature":"263","num_nodes":"11","size_leaf_vector":"1"}},{"base_weights":[6.453987E-2,4.1284226E-2,-5.783964E-1,3.663604E-3,-3.0579707E-2],"categories":[],"categories_nodes":[],"categories_segments":[],"categories_sizes":[],"default_left":[0,0,0,0,0],"id":37,"left_children":[1,-1,3,-1,-1],"loss_changes":[2.3500404E1,0E0,6.092739E-1,0E0,0E0],"parents":[2147483647,0,0,2,2],"right_children":[2,-1,4,-1,-1],"split_conditions":[-5.4359204E-1,4.1284226E-2,-8.9843625E-1,3.663604E-3,-3.0579707E-2],"split_indices":[12,0,41,0,0],"split_type":[0,0,0,0,0],"sum_hessian":[4.60461E1,2.0954603E1,2.5091496E1,1.1577554E0,2.393374E1],"tree_param":{"num_deleted":"0","num_feature":"263","num_nodes":"5","size_leaf_vector":"1"}},{"base_weights":[1.3410725E-2,2.5029534E-1,-2.9608164E-2,6.601833E-1,-2.7722237E-1,-1.838407E-2,7.4161893E-1,-4.416862E-1,3.0741408E-2,8.235972E-1,-1.6878864E-2,-2.968118E-2,-1.0212269E-2,1.1657525E-2,4.3042343E-2,-2.3687825E-2,3.076E-2],"categories":[],"categories_nodes":[],"categories_segments":[],"categories_sizes":[],"default_left":[0,0,0,0,0,0,0,0,0,0,0,0,0,0,0,0,0],"id":38,"left_children":[1,3,-1,5,7,-1,9,11,-1,13,-1,-1,15,-1,-1,-1,-1],"loss_changes":[7.1602545E0,7.932331E0,0E0,1.9856215E0,2.6739876E0,0E0,1.9849138E0,9.384954E-1,0E0,2.000637E-1,0E0,0E0,1.6742549E0,0E0,0E0,0E0,0E0],"parents":[2147483647,0,0,1,1,3,3,4,4,6,6,7,7,9,9,12,12],"right_children":[2,4,-1,6,8,-1,10,12,-1,14,-1,-1,16,-1,-1,-1,-1],"split_conditions":[3.8597725E-2,4.4753158E-1,-2.9608164E-2,-1.311867E0,1.325112E-1,-1.838407E-2,1.2776392E0,-1.2359686E0,3.0741408E-2,-7.1668077E-1,-1.6878864E-2,-2.968118E-2,6.269895E-3,1.1657525E-2,4.3042343E-2,-2.3687825E-2,3.076E-2],"split_indices":[23,253,0,47,58,0,14,81,0,52,0,0,138,0,0,0,0],"split_type":[0,0,0,0,0,0,0,0,0,0,0,0,0,0,0,0,0],"sum_hessian":[4.7881016E1,3.4839428E1,1.3041588E1,1.9464092E1,1.5375337E1,1.1708503E0,1.8293242E1,1.3408186E1,1.9671504E0,1.722187E1,1.0713718E0,9.638369E0,3.7698176E0,1.4527868E0,1.5769083E1,2.3043582E0,1.4654592E0],"tree_param":{"num_deleted":"0","num_feature":"263","num_nodes":"17","size_leaf_vector":"1"}},{"base_weights":[-7.289857E-4,-4.4446847E-1,6.067721E-1,3.0203212E-2,-5.2428627E-1,7.751655E-1,-9.345193E-3,7.0388645E-2,-3.0458242E-2,4.053454E-2,1.1521543E-2,3.015761E-2,-2.6190907E-2,2.9869765E-2,-2.11762E-2],"categories":[],"categories_nodes":[],"categories_segments":[],"categories_sizes":[],"default_left":[0,0,0,0,0,0,0,0,0,0,0,0,0,0,0],"id":39,"left_children":[1,3,5,-1,7,9,11,13,-1,-1,-1,-1,-1,-1,-1],"loss_changes":[1.3417799E1,2.7239375E0,2.1871161E0,0E0,1.4190254E0,1.3274574E-1,2.0484376E0,1.3727412E0,0E0,0E0,0E0,0E0,0E0,0E0,0E0],"parents":[2147483647,0,0,1,1,2,2,4,4,5,5,6,6,7,7],"right_children":[2,4,6,-1,8,10,12,14,-1,-1,-1,-1,-1,-1,-1],"split_conditions":[8.672173E-1,-1.2763087E0,-5.279324E-1,3.0203212E-2,-5.186209E-1,1.2604601E0,9.047889E-1,-1.0708936E0,-3.0458242E-2,4.053454E-2,1.1521543E-2,3.015761E-2,-2.6190907E-2,2.9869765E-2,-2.11762E-2],"split_indices":[12,16,16,0,59,56,1,23,0,0,0,0,0,0,0],"split_type":[0,0,0,0,0,0,0,0,0,0,0,0,0,0,0],"sum_hessian":[4.777397E1,2.776317E1,2.00108E1,1.4993117E0,2.6263859E1,1.5512793E1,4.498007E0,3.3017688E0,2.296209E1,1.4104711E1,1.4080825E0,1.9746957E0,2.523311E0,1.4960071E0,1.8057616E0],"tree_param":{"num_deleted":"0","num_feature":"263","num_nodes":"15","size_leaf_vector":"1"}},{"base_weights":[-1.0290651E-2,-5.769977E-1,3.9953656E-2,1.0049377E-3,-3.0287756E-2],"categories":[],"categories_nodes":[],"categories_segments":[],"categories_sizes":[],"default_left":[0,0,0,0,0],"id":40,"left_children":[1,3,-1,-1,-1],"loss_changes":[2.0380688E1,4.6075344E-1,0E0,0E0,0E0],"parents":[2147483647,0,0,1,1],"right_children":[2,4,-1,-1,-1],"split_conditions":[3.8597725E-2,-1.8499956E0,3.9953656E-2,1.0049377E-3,-3.0287756E-2],"split_indices":[23,35,0,0,0],"split_type":[0,0,0,0,0],"sum_hessian":[4.2428894E1,2.512427E1,1.7304623E1,1.1682713E0,2.3956E1],"tree_param":{"num_deleted":"0","num_feature":"263","num_nodes":"5","size_leaf_vector":"1"}},{"base_weights":[-1.5750006E-2,-2.8913781E-2,1.9230615E-1,6.163093E-1,-3.831049E-1,7.3267347E-1,-1.216641E-2,-2.970912E-2,2.934677E-1,1.0114987E-3,4.1409735E-2,-1.8570647E-2,3.628164E-2],"categories":[],"categories_nodes":[],"categories_segments":[],"categories_sizes":[],"default_left":[0,0,0,0,0,0,0,0,0,0,0,0,0],"id":41,"left_children":[1,-1,3,5,7,9,-1,-1,11,-1,-1,-1,-1],"loss_changes":[5.6052213E0,0E0,8.779807E0,2.2334409E0,2.3841121E0,1.2316885E0,0E0,0E0,1.5191011E0,0E0,0E0,0E0,0E0],"parents":[2147483647,0,0,2,2,3,3,4,4,5,5,8,8],"right_children":[2,-1,4,6,8,10,-1,-1,12,-1,-1,-1,-1],"split_conditions":[-5.4359204E-1,-2.8913781E-2,8.672173E-1,2.1229996E-1,7.200243E-1,-7.0900375E-1,-1.216641E-2,-2.970912E-2,-1.1314051E0,1.0114987E-3,4.1409735E-2,-1.8570647E-2,3.628164E-2],"split_indices":[12,0,12,7,48,52,0,0,34,0,0,0,0],"split_type":[0,0,0,0,0,0,0,0,0,0,0,0,0],"sum_hessian":[4.5942577E1,1.1924E1,3.4018578E1,1.954522E1,1.4473361E1,1.7345016E1,2.2002015E0,1.1124507E1,3.3488538E0,2.1938672E0,1.515115E1,1.3746098E0,1.974244E0],"tree_param":{"num_deleted":"0","num_feature":"263","num_nodes":"13","size_leaf_vector":"1"}},{"base_weights":[-3.7962024E-3,4.399417E-1,-2.9709835E-2,-2.7945098E-1,6.2625676E-1,1.6351435E-2,-2.5524268E-2,-1.7980432E-2,7.001236E-1,2.4968928E-1,7.861414E-1,3.0586386E-2,-2.0669226E-2,1.2884172E-2,4.0734995E-2],"categories":[],"categories_nodes":[],"categories_segments":[],"categories_sizes":[],"default_left":[0,0,0,0,0,0,0,0,0,0,0,0,0,0,0],"id":42,"left_children":[1,3,-1,5,7,-1,-1,-1,9,11,13,-1,-1,-1,-1],"loss_changes":[1.2068633E1,3.7007298E0,0E0,1.0220338E0,1.795764E0,0E0,0E0,0E0,5.810785E-1,1.3769642E0,3.7287712E-2,0E0,0E0,0E0,0E0],"parents":[2147483647,0,0,1,1,3,3,4,4,8,8,9,9,10,10],"right_children":[2,4,-1,6,8,-1,-1,-1,10,12,14,-1,-1,-1,-1],"split_conditions":[-3.7106803E-1,-1.2782665E-1,-2.9709835E-2,3.5572267E-1,-7.2187406E-1,1.6351435E-2,-2.5524268E-2,-1.7980432E-2,-1.6880132E0,-6.9484025E-1,-2.1254642E0,3.0586386E-2,-2.0669226E-2,1.2884172E-2,4.0734995E-2],"split_indices":[16,18,0,74,68,0,0,0,71,2,90,0,0,0,0],"split_type":[0,0,0,0,0,0,0,0,0,0,0,0,0,0,0],"sum_hessian":[4.4068645E1,2.5304745E1,1.87639E1,5.10266E0,2.0202084E1,1.2929881E0,3.809672E0,1.1385163E0,1.9063568E1,3.6825538E0,1.5381014E1,2.432076E0,1.2504778E0,1.3024745E0,1.407854E1],"tree_param":{"num_deleted":"0","num_feature":"263","num_nodes":"15","size_leaf_vector":"1"}},{"base_weights":[1.1323427E-3,3.855053E-2,-5.596205E-1,3.8525537E-3,-2.9822288E-2],"categories":[],"categories_nodes":[],"categories_segments":[],"categories_sizes":[],"default_left":[0,0,0,0,0],"id":43,"left_children":[1,-1,3,-1,-1],"loss_changes":[1.708015E1,0E0,5.8267355E-1,0E0,0E0],"parents":[2147483647,0,0,2,2],"right_children":[2,-1,4,-1,-1],"split_conditions":[-5.4359204E-1,3.855053E-2,-2.7368417E-1,3.8525537E-3,-2.9822288E-2],"split_indices":[12,0,248,0,0],"split_type":[0,0,0,0,0],"sum_hessian":[3.756436E1,1.5672312E1,2.189205E1,1.1372781E0,2.0754772E1],"tree_param":{"num_deleted":"0","num_feature":"263","num_nodes":"5","size_leaf_vector":"1"}},{"base_weights":[3.554706E-2,2.6774687E-1,-2.8702212E-2,6.296831E-1,-3.2620594E-1,7.2148865E-1,-2.0213818E-2,-5.0806475E-1,1.9003121E-2,7.802606E-1,-2.3083556E-3,4.441488E-4,-2.8753376E-2,4.0373657E-2,1.306948E-2],"categories":[],"categories_nodes":[],"categories_segments":[],"categories_sizes":[],"default_left":[0,0,0,0,0,0,0,0,0,0,0,0,0,0,0],"id":44,"left_children":[1,3,-1,5,7,9,-1,11,-1,13,-1,-1,-1,-1,-1],"loss_changes":[6.1688204E0,6.9674964E0,0E0,2.1793723E0,1.8074743E0,8.7627125E-1,0E0,3.661375E-1,0E0,3.3988E-2,0E0,0E0,0E0,0E0,0E0],"parents":[2147483647,0,0,1,1,3,3,4,4,5,5,7,7,9,9],"right_children":[2,4,-1,6,8,10,-1,12,-1,14,-1,-1,-1,-1,-1],"split_conditions":[3.8597725E-2,8.672173E-1,-2.8702212E-2,2.426519E-1,7.200243E-1,2.8188127E-1,-2.0213818E-2,-1.9183918E0,1.9003121E-2,-4.4249803E-2,-2.3083556E-3,4.441488E-4,-2.8753376E-2,4.0373657E-2,1.306948E-2],"split_indices":[23,12,0,7,48,257,0,46,0,42,0,0,0,0,0],"split_type":[0,0,0,0,0,0,0,0,0,0,0,0,0,0,0],"sum_hessian":[4.149559E1,3.045553E1,1.1040058E1,1.888652E1,1.1569011E1,1.7623898E1,1.2626232E0,9.423233E0,2.145777E0,1.6355309E1,1.2685878E0,1.1807555E0,8.242477E0,1.5011795E1,1.343514E0],"tree_param":{"num_deleted":"0","num_feature":"263","num_nodes":"15","size_leaf_vector":"1"}},{"base_weights":[6.044889E-3,-4.2160773E-1,6.2072384E-1,2.0885932E-1,-5.5792737E-1,-2.5489798E-1,3.8566526E-2,3.5290513E-2,-2.1631187E-2,-2.9599393E-2,-1.5888357E-3,-1.9525139E-2,-3.7481598E-4],"categories":[],"categories_nodes":[],"categories_segments":[],"categories_sizes":[],"default_left":[0,0,0,0,0,0,0,0,0,0,0,0,0],"id":45,"left_children":[1,3,5,7,9,11,-1,-1,-1,-1,-1,-1,-1],"loss_changes":[1.1981642E1,2.427402E0,2.6622543E0,2.0611389E0,3.8226032E-1,1.14343524E-1,0E0,0E0,0E0,0E0,0E0,0E0,0E0],"parents":[2147483647,0,0,1,1,2,2,3,3,4,4,5,5],"right_children":[2,4,6,8,10,12,-1,-1,-1,-1,-1,-1,-1],"split_conditions":[8.672173E-1,-7.0900375E-1,-1.5213168E0,-5.105335E-1,7.43843E-1,6.301067E-1,3.8566526E-2,3.5290513E-2,-2.1631187E-2,-2.9599393E-2,-1.5888357E-3,-1.9525139E-2,-3.7481598E-4],"split_indices":[12,52,43,20,48,8,0,0,0,0,0,0,0],"split_type":[0,0,0,0,0,0,0,0,0,0,0,0,0],"sum_hessian":[4.35847E1,2.5887798E1,1.7696901E1,4.507741E0,2.1380058E1,2.4955251E0,1.5201377E1,2.48351E0,2.024231E0,1.9962643E1,1.4174153E0,1.2383498E0,1.2571753E0],"tree_param":{"num_deleted":"0","num_feature":"263","num_nodes":"13","size_leaf_vector":"1"}},{"base_weights":[2.2828994E-2,-5.645592E-1,3.807225E-2,1.0081892E-3,-2.9659806E-2],"categories":[],"categories_nodes":[],"categories_segments":[],"categories_sizes":[],"default_left":[0,0,0,0,0],"id":46,"left_children":[1,3,-1,-1,-1],"loss_changes":[1.970987E1,4.3606567E-1,0E0,0E0,0E0],"parents":[2147483647,0,0,1,1],"right_children":[2,4,-1,-1,-1],"split_conditions":[3.8597725E-2,-6.0724586E-1,3.807225E-2,1.0081892E-3,-2.9659806E-2],"split_indices":[23,248,0,0,0],"split_type":[0,0,0,0,0],"sum_hessian":[4.3438854E1,2.4327744E1,1.911111E1,1.1496422E0,2.31781E1],"tree_param":{"num_deleted":"0","num_feature":"263","num_nodes":"5","size_leaf_vector":"1"}},{"base_weights":[2.1670919E-2,5.272775E-1,-1.6951911E-1,-2.4890713E-1,3.696613E-2,-3.026798E-1,3.6120015E-1,-1.8470297E-2,3.4801112E-4,2.368126E-2,-3.7793952E-1,5.575092E-1,-1.8143622E-2,2.4886033E-1,-5.0114286E-1,3.322042E-2,2.6740148E-3,-1.679097E-2,2.5272816E-2,5.8143693E-3,-2.7990935E-2],"categories":[],"categories_nodes":[],"categories_segments":[],"categories_sizes":[],"default_left":[0,0,0,0,0,0,0,0,0,0,0,0,0,0,0,0,0,0,0,0,0],"id":47,"left_children":[1,3,5,7,-1,9,11,-1,-1,-1,13,15,-1,17,19,-1,-1,-1,-1,-1,-1],"loss_changes":[4.373992E0,2.2257016E0,2.435708E0,1.0770297E-1,0E0,1.7482708E0,1.205642E0,0E0,0E0,0E0,2.0585654E0,2.8491533E-1,0E0,8.8714933E-1,8.353219E-1,0E0,0E0,0E0,0E0,0E0,0E0],"parents":[2147483647,0,0,1,1,2,2,3,3,5,5,6,6,10,10,11,11,13,13,14,14],"right_children":[2,4,6,8,-1,10,12,-1,-1,-1,14,16,-1,18,20,-1,-1,-1,-1,-1,-1],"split_conditions":[-1.5213168E0,-4.9689135E-1,9.274868E-1,6.92745E-1,3.696613E-2,-1.401013E0,1.3558772E0,-1.8470297E-2,3.4801112E-4,2.368126E-2,-1.020706E0,2.0144662E-1,-1.8143622E-2,-1.6188322E0,-1.5433004E0,3.322042E-2,2.6740148E-3,-1.679097E-2,2.5272816E-2,5.8143693E-3,-2.7990935E-2],"split_indices":[43,33,0,48,0,20,25,0,0,0,0,26,0,16,58,0,0,0,0,0,0],"split_type":[0,0,0,0,0,0,0,0,0,0,0,0,0,0,0,0,0,0,0,0,0],"sum_hessian":[4.3323406E1,1.1404928E1,3.1918478E1,2.409861E0,8.995067E0,2.5859781E1,6.0586967E0,1.3366405E0,1.0732205E0,1.8176347E0,2.4042145E1,4.947404E0,1.1112931E0,3.7818718E0,2.0260273E1,3.8191972E0,1.1282068E0,1.0593313E0,2.7225404E0,1.6730751E0,1.8587198E1],"tree_param":{"num_deleted":"0","num_feature":"263","num_nodes":"21","size_leaf_vector":"1"}},{"base_weights":[-1.0568113E-2,-4.2653263E-1,5.248059E-1,5.4191213E-2,-2.90474E-2,-2.4976441E-1,6.6347224E-1,-2.3986213E-2,2.8768433E-2,-1.9177355E-2,-3.4024767E-4,3.758623E-2,5.379727E-4],"categories":[],"categories_nodes":[],"categories_segments":[],"categories_sizes":[],"default_left":[0,0,0,0,0,0,0,0,0,0,0,0,0],"id":48,"left_children":[1,3,5,7,-1,9,11,-1,-1,-1,-1,-1,-1],"loss_changes":[9.192908E0,1.7548804E0,2.1052818E0,2.1011899E0,0E0,1.10128224E-1,8.899317E-1,0E0,0E0,0E0,0E0,0E0,0E0],"parents":[2147483647,0,0,1,1,2,2,3,3,5,5,6,6],"right_children":[2,4,6,8,-1,10,12,-1,-1,-1,-1,-1,-1],"split_conditions":[8.672173E-1,-1.1280024E0,-1.5213168E0,-8.43209E-2,-2.90474E-2,6.301067E-1,4.863686E-1,-2.3986213E-2,2.8768433E-2,-1.9177355E-2,-3.4024767E-4,3.758623E-2,5.379727E-4],"split_indices":[12,81,43,38,0,8,33,0,0,0,0,0,0],"split_type":[0,0,0,0,0,0,0,0,0,0,0,0,0],"sum_hessian":[3.9274807E1,2.2216646E1,1.705816E1,5.5591197E0,1.6657526E1,2.468467E0,1.4589693E1,2.7852912E0,2.7738285E0,1.2187376E0,1.2497294E0,1.2718368E1,1.8713253E0],"tree_param":{"num_deleted":"0","num_feature":"263","num_nodes":"13","size_leaf_vector":"1"}},{"base_weights":[-2.7971046E-2,3.682008E-2,-5.549952E-1,3.8981922E-3,-2.9408557E-2],"categories":[],"categories_nodes":[],"categories_segments":[],"categories_sizes":[],"default_left":[0,0,0,0,0],"id":49,"left_children":[1,-1,3,-1,-1],"loss_changes":[1.6841871E1,0E0,5.648565E-1,0E0,0E0],"parents":[2147483647,0,0,2,2],"right_children":[2,-1,4,-1,-1],"split_conditions":[-5.4359204E-1,3.682008E-2,-8.9843625E-1,3.8981922E-3,-2.9408557E-2],"split_indices":[12,0,41,0,0],"split_type":[0,0,0,0,0],"sum_hessian":[3.9793015E1,1.6077553E1,2.371546E1,1.1138808E0,2.2601578E1],"tree_param":{"num_deleted":"0","num_feature":"263","num_nodes":"5","size_leaf_vector":"1"}},{"base_weights":[7.560107E-3,2.2721109E-1,-2.8333051E-2,5.712231E-1,-2.5679728E-1,6.5627354E-1,-1.9758275E-2,-2.8506061E-2,4.604454E-1,7.011636E-2,3.833637E-2,3.7533324E-2,-1.64593E-2,2.780746E-2,-2.1217225E-2],"categories":[],"categories_nodes":[],"categories_segments":[],"categories_sizes":[],"default_left":[0,0,0,0,0,0,0,0,0,0,0,0,0,0,0],"id":50,"left_children":[1,3,-1,5,7,9,-1,-1,11,13,-1,-1,-1,-1,-1],"loss_changes":[5.870032E0,5.7476954E0,0E0,1.9009705E0,3.5582826E0,1.1591034E0,0E0,0E0,1.3956932E0,1.2143599E0,0E0,0E0,0E0,0E0,0E0],"parents":[2147483647,0,0,1,1,3,3,4,4,5,5,8,8,9,9],"right_children":[2,4,-1,6,8,10,-1,-1,12,14,-1,-1,-1,-1,-1],"split_conditions":[3.8597725E-2,8.672173E-1,-2.8333051E-2,2.426519E-1,-5.2190995E-1,-7.1050775E-1,-1.9758275E-2,-2.8506061E-2,-3.5791346E-1,-2.727621E-1,3.833637E-2,3.7533324E-2,-1.64593E-2,2.780746E-2,-2.1217225E-2],"split_indices":[23,12,0,7,16,52,0,0,34,40,0,0,0,0,0],"split_type":[0,0,0,0,0,0,0,0,0,0,0,0,0,0,0],"sum_hessian":[4.4519386E1,3.2638737E1,1.188065E1,1.8973213E1,1.3665523E1,1.7733421E1,1.2397912E0,9.653542E0,4.0119815E0,3.0710044E0,1.4662417E1,2.9698048E0,1.0421764E0,1.4857854E0,1.585219E0],"tree_param":{"num_deleted":"0","num_feature":"263","num_nodes":"15","size_leaf_vector":"1"}},{"base_weights":[4.460556E-2,-4.4686294E-1,5.9525645E-1,-1.2414378E-2,-2.8801698E-2,3.703546E-2,7.8003965E-2,-2.3073426E-2,2.5795242E-2,2.8877705E-2,-2.46528E-2],"categories":[],"categories_nodes":[],"categories_segments":[],"categories_sizes":[],"default_left":[0,0,0,0,0,0,0,0,0,0,0],"id":51,"left_children":[1,3,5,7,-1,-1,9,-1,-1,-1,-1],"loss_changes":[1.1386376E1,1.2433596E0,1.4324594E0,1.6921396E0,0E0,0E0,1.8438218E0,0E0,0E0,0E0,0E0],"parents":[2147483647,0,0,1,1,2,2,3,3,6,6],"right_children":[2,4,6,8,-1,-1,10,-1,-1,-1,-1],"split_conditions":[8.672173E-1,-2.498262E-1,-5.279324E-1,-1.9928241E-1,-2.8801698E-2,3.703546E-2,-8.577071E-2,-2.3073426E-2,2.5795242E-2,2.8877705E-2,-2.46528E-2],"split_indices":[12,64,16,38,0,0,40,0,0,0,0],"split_type":[0,0,0,0,0,0,0,0,0,0,0],"sum_hessian":[4.009108E1,2.1283525E1,1.8807552E1,5.1289907E0,1.6154535E1,1.434242E1,4.4651327E0,2.8408747E0,2.288116E0,2.3756216E0,2.0895112E0],"tree_param":{"num_deleted":"0","num_feature":"263","num_nodes":"11","size_leaf_vector":"1"}},{"base_weights":[1.5745698E-2,3.623107E-2,-5.47995E-1,-2.9088361E-2,4.036252E-3],"categories":[],"categories_nodes":[],"categories_segments":[],"categories_sizes":[],"default_left":[0,0,0,0,0],"id":52,"left_children":[1,-1,3,-1,-1],"loss_changes":[1.7179142E1,0E0,5.5574274E-1,0E0,0E0],"parents":[2147483647,0,0,2,2],"right_children":[2,-1,4,-1,-1],"split_conditions":[-5.4359204E-1,3.623107E-2,1.9032763E0,-2.9088361E-2,4.036252E-3],"split_indices":[12,0,222,0,0],"split_type":[0,0,0,0,0],"sum_hessian":[4.0994812E1,1.803337E1,2.2961443E1,2.1861797E1,1.0996455E0],"tree_param":{"num_deleted":"0","num_feature":"263","num_nodes":"5","size_leaf_vector":"1"}},{"base_weights":[-2.706452E-2,-2.78059E-2,1.7082985E-1,5.622078E-1,-3.598495E-1,-2.8733313E-1,7.1323085E-1,-2.8427321E-2,4.0774888E-1,-2.0397592E-2,-2.0165923E-3,9.615668E-3,3.728012E-2,2.9092276E-2,6.1595853E-4],"categories":[],"categories_nodes":[],"categories_segments":[],"categories_sizes":[],"default_left":[0,0,0,0,0,0,0,0,0,0,0,0,0,0,0],"id":53,"left_children":[1,-1,3,5,7,9,11,-1,13,-1,-1,-1,-1,-1,-1],"loss_changes":[4.590979E0,0E0,6.852264E0,2.619247E0,2.5066009E0,8.940482E-2,1.3087845E-1,0E0,2.4189258E-1,0E0,0E0,0E0,0E0,0E0,0E0],"parents":[2147483647,0,0,2,2,3,3,4,4,5,5,6,6,8,8],"right_children":[2,-1,4,6,8,10,12,-1,14,-1,-1,-1,-1,-1,-1],"split_conditions":[-5.4359204E-1,-2.78059E-2,8.672173E-1,-7.0900375E-1,-5.2190995E-1,7.553413E-1,1.303623E-1,-2.8427321E-2,-1.3357684E-1,-2.0397592E-2,-2.0165923E-3,9.615668E-3,3.728012E-2,2.9092276E-2,6.1595853E-4],"split_indices":[12,0,12,52,16,33,88,0,36,0,0,0,0,0,0],"split_type":[0,0,0,0,0,0,0,0,0,0,0,0,0,0,0],"sum_hessian":[4.194287E1,1.0925178E1,3.1017693E1,1.7817678E1,1.3200015E1,2.5531292E0,1.5264549E1,1.0582211E1,2.6178048E0,1.277612E0,1.2755172E0,1.2991794E0,1.3965369E1,1.4902593E0,1.1275454E0],"tree_param":{"num_deleted":"0","num_feature":"263","num_nodes":"15","size_leaf_vector":"1"}},{"base_weights":[5.648153E-2,4.353385E-1,-2.847751E-2,-8.225544E-2,6.51686E-1,2.7518986E-2,-3.3510402E-1,8.058152E-3,7.0593613E-1,1.31804E-2,-2.5921661E-2,1.3370166E-2,3.7020493E-2],"categories":[],"categories_nodes":[],"categories_segments":[],"categories_sizes":[],"default_left":[0,0,0,0,0,0,0,0,0,0,0,0,0],"id":54,"left_children":[1,3,-1,5,7,-1,9,-1,11,-1,-1,-1,-1],"loss_changes":[1.0076052E1,3.0078692E0,0E0,1.5704458E0,3.84315E-1,0E0,8.84364E-1,0E0,5.232811E-2,0E0,0E0,0E0,0E0],"parents":[2147483647,0,0,1,1,3,3,4,4,6,6,8,8],"right_children":[2,4,-1,6,8,-1,10,-1,12,-1,-1,-1,-1],"split_conditions":[-3.7106803E-1,4.4753158E-1,-2.847751E-2,-2.3089638E0,-5.516426E-1,2.7518986E-2,-8.173733E-1,8.058152E-3,-1.6835413E0,1.31804E-2,-2.5921661E-2,1.3370166E-2,3.7020493E-2],"split_indices":[16,253,0,74,47,0,85,0,38,0,0,0,0],"split_type":[0,0,0,0,0,0,0,0,0,0,0,0,0],"sum_hessian":[4.0437935E1,2.5382038E1,1.5055896E1,7.6646886E0,1.771735E1,1.852631E0,5.8120575E0,2.1597652E0,1.5557585E1,1.2598324E0,4.552225E0,1.7720793E0,1.3785505E1],"tree_param":{"num_deleted":"0","num_feature":"263","num_nodes":"13","size_leaf_vector":"1"}},{"base_weights":[-5.256793E-2,3.5168797E-2,-5.466771E-1,-2.8951606E-2,4.4660666E-3],"categories":[],"categories_nodes":[],"categories_segments":[],"categories_sizes":[],"default_left":[0,0,0,0,0],"id":55,"left_children":[1,-1,3,-1,-1],"loss_changes":[1.552172E1,0E0,5.676017E-1,0E0,0E0],"parents":[2147483647,0,0,2,2],"right_children":[2,-1,4,-1,-1],"split_conditions":[-5.4359204E-1,3.5168797E-2,-1.3914303E-1,-2.8951606E-2,4.4660666E-3],"split_indices":[12,0,95,0,0],"split_type":[0,0,0,0,0],"sum_hessian":[3.952594E1,1.5456034E1,2.4069904E1,2.2989914E1,1.0799904E0],"tree_param":{"num_deleted":"0","num_feature":"263","num_nodes":"5","size_leaf_vector":"1"}},{"base_weights":[-2.0729486E-2,5.340147E-1,-2.1693413E-1,6.643338E-1,-1.5910668E-2,-3.5381112E-1,1.4865945E-1,1.0152204E-2,3.566059E-2,-4.4990057E-1,2.0050073E-2,5.382465E-1,-2.3475831E-2,-7.47116E-2,-5.378826E-1,3.130142E-2,6.5251216E-3,1.5787238E-2,-2.0934196E-2,-1.7381795E-3,-2.9021194E-2],"categories":[],"categories_nodes":[],"categories_segments":[],"categories_sizes":[],"default_left":[0,0,0,0,0,0,0,0,0,0,0,0,0,0,0,0,0,0,0,0,0],"id":56,"left_children":[1,3,5,7,-1,9,11,-1,-1,13,-1,15,-1,17,19,-1,-1,-1,-1,-1,-1],"loss_changes":[4.539076E0,1.4227188E0,1.590456E0,7.5786114E-2,0E0,1.8236423E0,2.4384515E0,0E0,0E0,6.387892E-1,0E0,1.3424075E-1,0E0,8.129248E-1,3.3298445E-1,0E0,0E0,0E0,0E0,0E0,0E0],"parents":[2147483647,0,0,1,1,2,2,3,3,5,5,6,6,9,9,11,11,13,13,14,14],"right_children":[2,4,6,8,-1,10,12,-1,-1,14,-1,16,-1,18,20,-1,-1,-1,-1,-1,-1],"split_conditions":[-1.5213168E0,3.8597725E-2,6.379737E-1,-1.3000679E0,-1.5910668E-2,1.1895055E0,-5.4892445E-1,1.0152204E-2,3.566059E-2,-1.1936314E0,2.0050073E-2,3.1985506E-1,-2.3475831E-2,-5.516426E-1,-8.601231E-1,3.130142E-2,6.5251216E-3,1.5787238E-2,-2.0934196E-2,-1.7381795E-3,-2.9021194E-2],"split_indices":[43,23,21,85,0,38,49,0,0,37,0,40,0,47,62,0,0,0,0,0,0],"split_type":[0,0,0,0,0,0,0,0,0,0,0,0,0,0,0,0,0,0,0,0,0],"sum_hessian":[3.963848E1,9.906726E0,2.9731754E1,8.783989E0,1.1227368E0,2.1656036E1,8.075718E0,1.3353771E0,7.448612E0,1.9568834E1,2.087202E0,5.0330725E0,3.0426452E0,4.0684752E0,1.550036E1,3.7009587E0,1.3321137E0,1.9439197E0,2.1245556E0,1.3501256E0,1.4150234E1],"tree_param":{"num_deleted":"0","num_feature":"263","num_nodes":"21","size_leaf_vector":"1"}},{"base_weights":[2.3038117E-2,-4.9734417E-1,4.2098725E-1,-2.4162555E-2,-2.8346425E-2,6.4390504E-1,-9.106456E-2,1.5922463E-2,-1.7545506E-2,6.962899E-1,-2.8091785E-3,-4.3814588E-1,2.87244E-2,1.1071209E-2,3.5919826E-2,-2.6168028E-2,-2.3505963E-4],"categories":[],"categories_nodes":[],"categories_segments":[],"categories_sizes":[],"default_left":[0,0,0,0,0,0,0,0,0,0,0,0,0,0,0,0,0],"id":57,"left_children":[1,3,5,7,-1,9,11,-1,-1,13,-1,15,-1,-1,-1,-1,-1],"loss_changes":[9.22611E0,6.226468E-1,2.9367685E0,5.0605285E-1,0E0,6.879163E-1,2.220699E0,0E0,0E0,1.4497757E-2,0E0,2.2541654E-1,0E0,0E0,0E0,0E0,0E0],"parents":[2147483647,0,0,1,1,2,2,3,3,5,5,6,6,9,9,11,11],"right_children":[2,4,6,8,-1,10,12,-1,-1,14,-1,16,-1,-1,-1,-1,-1],"split_conditions":[-6.122927E-1,-1.1047153E0,-1.1280024E0,6.868216E-3,-2.8346425E-2,-4.2146868E-1,-1.3570373E0,1.5922463E-2,-1.7545506E-2,-4.5502952E-1,-2.8091785E-3,1.7655555E0,2.87244E-2,1.1071209E-2,3.5919826E-2,-2.6168028E-2,-2.3505963E-4],"split_indices":[252,64,81,40,0,42,43,0,0,173,0,25,0,0,0,0,0],"split_type":[0,0,0,0,0,0,0,0,0,0,0,0,0,0,0,0,0],"sum_hessian":[4.2541077E1,1.8326488E1,2.421459E1,2.5222356E0,1.5804254E1,1.6690855E1,7.5237336E0,1.2436259E0,1.2786096E0,1.5533938E1,1.1569175E0,5.1695356E0,2.354198E0,1.1810175E0,1.4352921E1,4.1468296E0,1.0227063E0],"tree_param":{"num_deleted":"0","num_feature":"263","num_nodes":"17","size_leaf_vector":"1"}},{"base_weights":[1.4428267E-2,3.4696415E-2,-2.8528137E-2],"categories":[],"categories_nodes":[],"categories_segments":[],"categories_sizes":[],"default_left":[0,0,0],"id":58,"left_children":[1,-1,-1],"loss_changes":[1.5724237E1,0E0,0E0],"parents":[2147483647,0,0],"right_children":[2,-1,-1],"split_conditions":[-5.4359204E-1,3.4696415E-2,-2.8528137E-2],"split_indices":[12,0,0],"split_type":[0,0,0],"sum_hessian":[3.7561646E1,1.7290977E1,2.0270666E1],"tree_param":{"num_deleted":"0","num_feature":"263","num_nodes":"3","size_leaf_vector":"1"}},{"base_weights":[-4.7248337E-2,1.4657682E-1,-2.7457178E-2,5.071539E-1,-3.4252292E-1,6.7723477E-1,-4.2882524E-2,3.2701606E-1,-2.7804038E-2,3.5822533E-2,8.364723E-3,2.4559274E-2,-2.4004677E-2,2.8656533E-2,-3.2488506E-3],"categories":[],"categories_nodes":[],"categories_segments":[],"categories_sizes":[],"default_left":[0,0,0,0,0,0,0,0,0,0,0,0,0,0,0],"id":59,"left_children":[1,3,-1,5,7,9,11,13,-1,-1,-1,-1,-1,-1,-1],"loss_changes":[4.0385175E0,5.4893312E0,0E0,1.689867E0,2.0961096E0,1.5250492E-1,1.434488E0,4.1033414E-1,0E0,0E0,0E0,0E0,0E0,0E0,0E0],"parents":[2147483647,0,0,1,1,3,3,4,4,5,5,6,6,7,7],"right_children":[2,4,-1,6,8,10,12,14,-1,-1,-1,-1,-1,-1,-1],"split_conditions":[3.8597725E-2,8.672173E-1,-2.7457178E-2,1.5080276E0,9.385076E-2,1.6552856E0,-6.921378E-1,2.1154238E-1,-2.7804038E-2,3.5822533E-2,8.364723E-3,2.4559274E-2,-2.4004677E-2,2.8656533E-2,-3.2488506E-3],"split_indices":[23,12,0,53,7,217,42,44,0,0,0,0,0,0,0],"split_type":[0,0,0,0,0,0,0,0,0,0,0,0,0,0,0],"sum_hessian":[3.9686977E1,2.9141048E1,1.0545927E1,1.6753223E1,1.2387827E1,1.2619728E1,4.1334944E0,2.8672504E0,9.5205765E0,1.1342489E1,1.2772393E0,1.8050783E0,2.3284159E0,1.4775009E0,1.3897495E0],"tree_param":{"num_deleted":"0","num_feature":"263","num_nodes":"15","size_leaf_vector":"1"}},{"base_weights":[5.2453326E-3,4.6288776E-1,-4.6980298E-1,-3.0702466E-1,6.0709476E-1,-5.297844E-1,1.2789284E-2,-6.438775E-4,-2.0312073E-2,1.9245321E-3,6.7467546E-1,-2.8607387E-2,5.127917E-3,3.5700865E-2,6.728495E-3],"categories":[],"categories_nodes":[],"categories_segments":[],"categories_sizes":[],"default_left":[0,0,0,0,0,0,0,0,0,0,0,0,0,0,0],"id":60,"left_children":[1,3,5,7,9,11,-1,-1,-1,-1,13,-1,-1,-1,-1],"loss_changes":[8.739603E0,2.459045E0,9.9421644E-1,1.0839152E-1,6.494231E-1,5.5558634E-1,0E0,0E0,0E0,0E0,2.3642635E-1,0E0,0E0,0E0,0E0],"parents":[2147483647,0,0,1,1,2,2,3,3,4,4,5,5,10,10],"right_children":[2,4,6,8,10,12,-1,-1,-1,-1,14,-1,-1,-1,-1],"split_conditions":[-5.279324E-1,-6.371907E-1,-2.306703E-1,-7.4803704E-1,-1.6743898E0,1.7985252E0,1.2789284E-2,-6.438775E-4,-2.0312073E-2,1.9245321E-3,1.5597929E-1,-2.8607387E-2,5.127917E-3,3.5700865E-2,6.728495E-3],"split_indices":[16,253,256,260,38,93,0,0,0,0,36,0,0,0,0],"split_type":[0,0,0,0,0,0,0,0,0,0,0,0,0,0,0],"sum_hessian":[3.8199856E1,1.9469408E1,1.8730446E1,2.8932843E0,1.6576124E1,1.7549553E1,1.1808934E0,1.0147264E0,1.878558E0,1.9275811E0,1.4648543E1,1.6536871E1,1.012681E0,1.3353841E1,1.294702E0],"tree_param":{"num_deleted":"0","num_feature":"263","num_nodes":"15","size_leaf_vector":"1"}},{"base_weights":[-1.3858342E-2,-5.039227E-1,3.3949044E-2,-2.8226763E-2,5.289382E-3],"categories":[],"categories_nodes":[],"categories_segments":[],"categories_sizes":[],"default_left":[0,0,0,0,0],"id":61,"left_children":[1,3,-1,-1,-1],"loss_changes":[1.2557488E1,8.596659E-1,0E0,0E0,0E0],"parents":[2147483647,0,0,1,1],"right_children":[2,4,-1,-1,-1],"split_conditions":[3.8597725E-2,6.6596645E-1,3.3949044E-2,-2.8226763E-2,5.289382E-3],"split_indices":[23,91,0,0,0],"split_type":[0,0,0,0,0],"sum_hessian":[3.4976574E1,2.0645855E1,1.4330716E1,1.8846392E1,1.799465E0],"tree_param":{"num_deleted":"0","num_feature":"263","num_nodes":"5","size_leaf_vector":"1"}},{"base_weights":[4.255212E-2,-2.6685689E-2,2.417565E-1,5.861402E-1,-2.272023E-1,6.5189743E-1,-6.700605E-3,2.4504814E-2,-4.6906438E-1,2.518014E-1,3.5470765E-2,-2.7198205E-2,5.537472E-3,2.2991586E-2,-4.521354E-3],"categories":[],"categories_nodes":[],"categories_segments":[],"categories_sizes":[],"default_left":[0,0,0,0,0,0,0,0,0,0,0,0,0,0,0],"id":62,"left_children":[1,-1,3,5,7,9,-1,-1,11,13,-1,-1,-1,-1,-1],"loss_changes":[4.6036634E0,0E0,4.922439E0,9.1028404E-1,2.5332665E0,1.9173765E-1,0E0,0E0,5.136304E-1,2.9596692E-1,0E0,0E0,0E0,0E0,0E0],"parents":[2147483647,0,0,2,2,3,3,4,4,5,5,8,8,9,9],"right_children":[2,-1,4,6,8,10,-1,-1,12,14,-1,-1,-1,-1,-1],"split_conditions":[-5.4359204E-1,-2.6685689E-2,8.672173E-1,2.829482E-1,-1.5213168E0,-4.9579415E-2,-6.700605E-3,2.4504814E-2,2.3758183E0,-3.5266677E-1,3.5470765E-2,-2.7198205E-2,5.537472E-3,2.2991586E-2,-4.521354E-3],"split_indices":[12,0,12,231,43,65,0,0,259,40,0,0,0,0,0],"split_type":[0,0,0,0,0,0,0,0,0,0,0,0,0,0,0],"sum_hessian":[3.7979454E1,9.324876E0,2.865458E1,1.6377645E1,1.2276933E1,1.5094173E1,1.2834729E0,2.8369498E0,9.439983E0,2.5731387E0,1.2521034E1,8.414799E0,1.0251848E0,1.386617E0,1.1865218E0],"tree_param":{"num_deleted":"0","num_feature":"263","num_nodes":"15","size_leaf_vector":"1"}},{"base_weights":[-3.7760683E-3,3.8746652E-1,-2.793069E-2,-3.322414E-1,5.4072195E-1,-2.311552E-2,3.1640416E-3,6.076751E-1,-1.6452422E-2,6.993121E-3,6.598158E-1,3.5181604E-2,1.7298553E-3],"categories":[],"categories_nodes":[],"categories_segments":[],"categories_sizes":[],"default_left":[0,0,0,0,0,0,0,0,0,0,0,0,0],"id":63,"left_children":[1,3,-1,5,7,-1,-1,9,-1,-1,11,-1,-1],"loss_changes":[8.4284935E0,2.6918645E0,0E0,2.66828E-1,1.3156214E0,0E0,0E0,3.5019636E-1,0E0,0E0,4.1540337E-1,0E0,0E0],"parents":[2147483647,0,0,1,1,3,3,4,4,7,7,10,10],"right_children":[2,4,-1,6,8,-1,-1,10,-1,-1,12,-1,-1],"split_conditions":[-3.7106803E-1,-1.5213168E0,-2.793069E-2,-4.4384527E-1,-1.6784118E-1,-2.311552E-2,3.1640416E-3,-5.516426E-1,-1.6452422E-2,6.993121E-3,1.0468181E0,3.5181604E-2,1.7298553E-3],"split_indices":[16,43,0,19,20,0,0,47,0,0,46,0,0],"split_type":[0,0,0,0,0,0,0,0,0,0,0,0,0],"sum_hessian":[3.683027E1,2.177637E1,1.5053901E1,3.617977E0,1.8158392E1,2.5955572E0,1.0224197E0,1.7140305E1,1.0180867E0,2.0880911E0,1.5052214E1,1.3949214E1,1.1029998E0],"tree_param":{"num_deleted":"0","num_feature":"263","num_nodes":"13","size_leaf_vector":"1"}},{"base_weights":[-4.993597E-2,3.3212196E-2,-5.306795E-1,4.9890666E-3,-2.8220564E-2],"categories":[],"categories_nodes":[],"categories_segments":[],"categories_sizes":[],"default_left":[0,0,0,0,0],"id":64,"left_children":[1,-1,3,-1,-1],"loss_changes":[1.35066805E1,0E0,5.551157E-1,0E0,0E0],"parents":[2147483647,0,0,2,2],"right_children":[2,-1,4,-1,-1],"split_conditions":[-5.4359204E-1,3.3212196E-2,-5.7529277E-1,4.9890666E-3,-2.8220564E-2],"split_indices":[12,0,49,0,0],"split_type":[0,0,0,0,0],"sum_hessian":[3.7312687E1,1.4858134E1,2.2454554E1,1.0409347E0,2.1413618E1],"tree_param":{"num_deleted":"0","num_feature":"263","num_nodes":"5","size_leaf_vector":"1"}},{"base_weights":[6.9130473E-3,1.8720289E-1,-2.6716068E-2,5.312719E-1,-3.670086E-1,-4.275368E-3,5.819285E-1,1.5385113E-2,-4.7780767E-1,-4.3761237E-3,6.3465005E-1,2.85378E-3,-2.71869E-2,2.4977296E-3,3.4740392E-2],"categories":[],"categories_nodes":[],"categories_segments":[],"categories_sizes":[],"default_left":[0,0,0,0,0,0,0,0,0,0,0,0,0,0,0],"id":65,"left_children":[1,3,-1,5,7,-1,9,-1,11,-1,13,-1,-1,-1,-1],"loss_changes":[3.936956E0,5.9606776E0,0E0,6.4537907E-1,1.0570372E0,0E0,6.8183947E-1,0E0,4.1357565E-1,0E0,5.4814243E-1,0E0,0E0,0E0,0E0],"parents":[2147483647,0,0,1,1,3,3,4,4,6,6,8,8,10,10],"right_children":[2,4,-1,6,8,-1,10,-1,12,-1,14,-1,-1,-1,-1],"split_conditions":[3.8597725E-2,8.672173E-1,-2.6716068E-2,9.568514E-2,1.898839E-1,-4.275368E-3,-8.6959237E-1,1.5385113E-2,-2.794884E0,-4.3761237E-3,-5.4343575E-1,2.85378E-3,-2.71869E-2,2.4977296E-3,3.4740392E-2],"split_indices":[23,12,0,30,13,0,60,0,76,0,22,0,0,0,0],"split_type":[0,0,0,0,0,0,0,0,0,0,0,0,0,0,0],"sum_hessian":[3.8321236E1,2.9236444E1,9.084792E0,1.8063526E1,1.1172917E1,1.3187591E0,1.6744768E1,1.3253115E0,9.847606E0,1.1742479E0,1.5570519E1,1.0953664E0,8.752239E0,1.6233153E0,1.3947204E1],"tree_param":{"num_deleted":"0","num_feature":"263","num_nodes":"15","size_leaf_vector":"1"}},{"base_weights":[1.0409088E-2,3.9268616E-1,-2.7469132E-2,-1.6248569E-1,5.791641E-1,-2.4961641E-2,2.4178801E-2,6.352782E-1,-4.9967947E-3,5.0551863E-3,3.3818047E-2],"categories":[],"categories_nodes":[],"categories_segments":[],"categories_sizes":[],"default_left":[0,0,0,0,0,0,0,0,0,0,0],"id":66,"left_children":[1,3,-1,5,7,-1,-1,9,-1,-1,-1],"loss_changes":[8.2298975E0,2.4583187E0,0E0,1.66053E0,7.2326326E-1,0E0,0E0,2.8555632E-1,0E0,0E0,0E0],"parents":[2147483647,0,0,1,1,3,3,4,4,7,7],"right_children":[2,4,-1,6,8,-1,-1,10,-1,-1,-1],"split_conditions":[-3.7106803E-1,-1.4560993E0,-2.7469132E-2,1.7251029E0,1.1022879E0,-2.4961641E-2,2.4178801E-2,-1.6437234E0,-4.9967947E-3,5.0551863E-3,3.3818047E-2],"split_indices":[16,43,0,259,5,0,0,20,0,0,0],"split_type":[0,0,0,0,0,0,0,0,0,0,0],"sum_hessian":[3.645014E1,2.1836615E1,1.4613526E1,5.5228753E0,1.631374E1,3.7799284E0,1.7429467E0,1.51282215E1,1.1855179E0,1.32757E0,1.3800652E1],"tree_param":{"num_deleted":"0","num_feature":"263","num_nodes":"11","size_leaf_vector":"1"}},{"base_weights":[-5.315292E-2,3.226229E-2,-2.7876554E-2],"categories":[],"categories_nodes":[],"categories_segments":[],"categories_sizes":[],"default_left":[0,0,0],"id":67,"left_children":[1,-1,-1],"loss_changes":[1.1919982E1,0E0,0E0],"parents":[2147483647,0,0],"right_children":[2,-1,-1],"split_conditions":[-5.4359204E-1,3.226229E-2,-2.7876554E-2],"split_indices":[12,0,0],"split_type":[0,0,0],"sum_hessian":[3.1817616E1,1.32254305E1,1.8592184E1],"tree_param":{"num_deleted":"0","num_feature":"263","num_nodes":"3","size_leaf_vector":"1"}},{"base_weights":[-1.3891033E-2,-2.6413834E-2,1.8377468E-1,5.2755266E-1,-1.5218712E-1,-1.875346E-2,3.288147E-2,-4.3101352E-1,4.459713E-1,3.1707503E-3,-2.77756E-2,-4.225101E-3,3.1705897E-2],"categories":[],"categories_nodes":[],"categories_segments":[],"categories_sizes":[],"default_left":[0,0,0,0,0,0,0,0,0,0,0,0,0],"id":68,"left_children":[1,-1,3,5,7,-1,-1,9,11,-1,-1,-1,-1],"loss_changes":[3.7654424E0,0E0,3.176186E0,1.8284495E0,2.582681E0,0E0,0E0,6.6829073E-1,5.5745006E-1,0E0,0E0,0E0,0E0],"parents":[2147483647,0,0,2,2,3,3,4,4,7,7,8,8],"right_children":[2,-1,4,6,8,-1,-1,10,12,-1,-1,-1,-1],"split_conditions":[-5.4359204E-1,-2.6413834E-2,5.559564E-1,-3.4548116E0,6.504937E-1,-1.875346E-2,3.288147E-2,1.075894E-1,-1.0605325E0,3.1707503E-3,-2.77756E-2,-4.225101E-3,3.1705897E-2],"split_indices":[12,0,252,74,0,0,0,73,19,0,0,0,0],"split_type":[0,0,0,0,0,0,0,0,0,0,0,0,0],"sum_hessian":[3.507876E1,9.273569E0,2.5805191E1,1.2472372E1,1.3332819E1,1.3337607E0,1.1138612E1,9.284406E0,4.0484133E0,1.9662707E0,7.3181353E0,1.204169E0,2.8442442E0],"tree_param":{"num_deleted":"0","num_feature":"263","num_nodes":"13","size_leaf_vector":"1"}},{"base_weights":[1.2489894E-2,4.77496E-1,-4.4125593E-1,5.516544E-1,-1.7263742E-2,1.7914457E-2,-5.3231364E-1,-1.5505855E-2,6.245325E-1,-3.7689672E-3,-2.8007466E-2,3.4264665E-2,1.6343066E-3],"categories":[],"categories_nodes":[],"categories_segments":[],"categories_sizes":[],"default_left":[0,0,0,0,0,0,0,0,0,0,0,0,0],"id":69,"left_children":[1,3,5,7,-1,-1,9,-1,11,-1,-1,-1,-1],"loss_changes":[8.253929E0,1.3684936E0,1.6332469E0,1.3301592E0,0E0,0E0,1.8913698E-1,0E0,5.8952904E-1,0E0,0E0,0E0,0E0],"parents":[2147483647,0,0,1,1,2,2,3,3,6,6,8,8],"right_children":[2,4,6,8,-1,-1,10,-1,12,-1,-1,-1,-1],"split_conditions":[-1.1280024E0,-9.685091E-1,-3.4548116E0,2.0731695E-2,-1.7263742E-2,1.7914457E-2,-2.1207695E0,-1.5505855E-2,1.2887447E0,-3.7689672E-3,-2.8007466E-2,3.4264665E-2,1.6343066E-3],"split_indices":[81,43,74,12,0,0,24,0,56,0,0,0,0],"split_type":[0,0,0,0,0,0,0,0,0,0,0,0,0],"sum_hessian":[3.7120564E1,1.8306955E1,1.8813608E1,1.7095602E1,1.2113534E0,1.6234994E0,1.719011E1,1.079181E0,1.601642E1,1.1999776E0,1.599013E1,1.4382027E1,1.6343935E0],"tree_param":{"num_deleted":"0","num_feature":"263","num_nodes":"13","size_leaf_vector":"1"}},{"base_weights":[-5.3378426E-2,-2.7676616E-2,3.215038E-2],"categories":[],"categories_nodes":[],"categories_segments":[],"categories_sizes":[],"default_left":[0,0,0],"id":70,"left_children":[1,-1,-1],"loss_changes":[1.1563384E1,0E0,0E0],"parents":[2147483647,0,0],"right_children":[2,-1,-1],"split_conditions":[3.8597725E-2,-2.7676616E-2,3.215038E-2],"split_indices":[23,0,0],"split_type":[0,0,0],"sum_hessian":[3.1177586E1,1.8264738E1,1.29128475E1],"tree_param":{"num_deleted":"0","num_feature":"263","num_nodes":"3","size_leaf_vector":"1"}},{"base_weights":[-2.7277807E-2,1.5781227E-1,-2.6445055E-2,4.5880333E-1,-3.9836228E-1,3.3349182E-2,2.3904098E-2,-2.6269156E-2,3.6899005E-3,2.1789208E-2,-3.6495128E-1,-2.2927439E-2,-1.9964005E-3],"categories":[],"categories_nodes":[],"categories_segments":[],"categories_sizes":[],"default_left":[0,0,0,0,0,0,0,0,0,0,0,0,0],"id":71,"left_children":[1,3,-1,5,7,-1,9,-1,-1,-1,11,-1,-1],"loss_changes":[3.5922253E0,4.932954E0,0E0,1.6930747E0,6.68458E-1,0E0,1.303861E0,0E0,0E0,0E0,1.1009812E-1,0E0,0E0],"parents":[2147483647,0,0,1,1,3,3,4,4,6,6,10,10],"right_children":[2,4,-1,6,8,-1,10,-1,-1,-1,12,-1,-1],"split_conditions":[3.8597725E-2,8.92783E-1,-2.6445055E-2,-1.4560993E0,3.037871E-1,3.3349182E-2,-4.3383032E-1,-2.6269156E-2,3.6899005E-3,2.1789208E-2,1.2514563E0,-2.2927439E-2,-1.9964005E-3],"split_indices":[23,12,0,43,32,0,38,0,0,0,39,0,0],"split_type":[0,0,0,0,0,0,0,0,0,0,0,0,0],"sum_hessian":[3.679137E1,2.7375643E1,9.415729E0,1.7876368E1,9.499276E0,1.1728462E1,6.1479044E0,7.396692E0,2.1025841E0,2.9269555E0,3.2209492E0,2.1818266E0,1.0391225E0],"tree_param":{"num_deleted":"0","num_feature":"263","num_nodes":"13","size_leaf_vector":"1"}},{"base_weights":[1.3325169E-3,3.615489E-1,-2.7234793E-2,-2.1369152E-2,6.274896E-1,-2.3727864E-2,3.0798256E-1,8.736055E-3,3.2713067E-2,5.1599365E-1,-1.83499E-2,6.571287E-3,2.9851703E-2],"categories":[],"categories_nodes":[],"categories_segments":[],"categories_sizes":[],"default_left":[0,0,0,0,0,0,0,0,0,0,0,0,0],"id":72,"left_children":[1,3,-1,5,7,-1,9,-1,-1,11,-1,-1,-1],"loss_changes":[7.2502995E0,2.2748966E0,0E0,1.6490512E0,4.494524E-2,0E0,1.0932431E0,0E0,0E0,8.785725E-2,0E0,0E0,0E0],"parents":[2147483647,0,0,1,1,3,3,4,4,6,6,9,9],"right_children":[2,4,-1,6,8,-1,10,-1,-1,12,-1,-1,-1],"split_conditions":[-3.7106803E-1,-4.9325478E-1,-2.7234793E-2,-7.0557946E-1,-2.1254642E0,-2.3727864E-2,-8.8868296E-1,8.736055E-3,3.2713067E-2,-1.1436948E0,-1.83499E-2,6.571287E-3,2.9851703E-2],"split_indices":[16,258,0,42,90,0,24,0,0,37,0,0,0],"split_type":[0,0,0,0,0,0,0,0,0,0,0,0,0],"sum_hessian":[3.4860615E1,2.1207697E1,1.3652917E1,9.069095E0,1.2138602E1,3.6314015E0,5.437693E0,1.097852E0,1.104075E1,4.3367615E0,1.1009319E0,1.2111444E0,3.125617E0],"tree_param":{"num_deleted":"0","num_feature":"263","num_nodes":"13","size_leaf_vector":"1"}},{"base_weights":[3.1716428E-3,-4.8303375E-1,3.1711873E-2,1.3674321E-2,-2.7384806E-2],"categories":[],"categories_nodes":[],"categories_segments":[],"categories_sizes":[],"default_left":[0,0,0,0,0],"id":73,"left_children":[1,3,-1,-1,-1],"loss_changes":[1.0592595E1,1.1038532E0,0E0,0E0,0E0],"parents":[2147483647,0,0,1,1],"right_children":[2,4,-1,-1,-1],"split_conditions":[3.8597725E-2,-2.153336E0,3.1711873E-2,1.3674321E-2,-2.7384806E-2],"split_indices":[23,47,0,0,0],"split_type":[0,0,0,0,0],"sum_hessian":[3.2524487E1,1.8503227E1,1.402126E1,1.2027029E0,1.7300526E1],"tree_param":{"num_deleted":"0","num_feature":"263","num_nodes":"5","size_leaf_vector":"1"}},{"base_weights":[2.0842262E-2,2.202131E-1,-2.629194E-2,4.9653688E-1,-2.0169877E-1,5.730907E-1,1.030144E-2,2.2742698E-2,-4.432871E-1,5.6954366E-3,6.200113E-1,-1.8925004E-2,1.939986E-2,-6.526201E-5,-2.5914429E-2,7.059678E-3,3.2653593E-2],"categories":[],"categories_nodes":[],"categories_segments":[],"categories_sizes":[],"default_left":[0,0,0,0,0,0,0,0,0,0,0,0,0,0,0,0,0],"id":74,"left_children":[1,3,-1,5,7,9,11,-1,13,-1,15,-1,-1,-1,-1,-1,-1],"loss_changes":[4.295027E0,3.4580343E0,0E0,6.526756E-1,2.1223814E0,2.583208E-1,6.49809E-1,0E0,3.095554E-1,0E0,1.2350845E-1,0E0,0E0,0E0,0E0,0E0,0E0],"parents":[2147483647,0,0,1,1,3,3,4,4,5,5,6,6,8,8,10,10],"right_children":[2,4,-1,6,8,10,12,-1,14,-1,16,-1,-1,-1,-1,-1,-1],"split_conditions":[3.8597725E-2,8.672173E-1,-2.629194E-2,1.7296526E0,-1.5213168E0,-1.8544207E0,-1.012827E-2,2.2742698E-2,-2.7696187E0,5.6954366E-3,-9.710822E-1,-1.8925004E-2,1.939986E-2,-6.526201E-5,-2.5914429E-2,7.059678E-3,3.2653593E-2],"split_indices":[23,12,0,53,43,58,24,0,69,0,51,0,0,0,0,0,0],"split_type":[0,0,0,0,0,0,0,0,0,0,0,0,0,0,0,0,0],"sum_hessian":[3.7344288E1,2.7802198E1,9.5420885E0,1.669272E1,1.1109479E1,1.4267752E1,2.4249682E0,2.7508538E0,8.358624E0,1.6405405E0,1.2627211E1,1.1938672E0,1.231101E0,1.3602294E0,6.9983954E0,1.1559693E0,1.1471242E1],"tree_param":{"num_deleted":"0","num_feature":"263","num_nodes":"17","size_leaf_vector":"1"}},{"base_weights":[6.8697343E-3,-4.4970998E-1,4.0052634E-1,1.0061991E-1,-2.7063403E-2,-1.8298209E-1,5.5374384E-1,1.2240591E-2,-4.3214187E-3,-2.385096E-2,1.8984098E-2,3.1794187E-2,-7.6400302E-3],"categories":[],"categories_nodes":[],"categories_segments":[],"categories_sizes":[],"default_left":[0,0,0,0,0,0,0,0,0,0,0,0,0],"id":75,"left_children":[1,3,5,7,-1,9,11,-1,-1,-1,-1,-1,-1],"loss_changes":[6.5225167E0,9.014201E-1,1.8427618E0,1.085674E-1,0E0,9.7567034E-1,1.0069165E0,0E0,0E0,0E0,0E0,0E0,0E0],"parents":[2147483647,0,0,1,1,2,2,3,3,5,5,6,6],"right_children":[2,4,6,8,-1,10,12,-1,-1,-1,-1,-1,-1],"split_conditions":[1.0228378E0,-7.628785E-1,-4.9090628E-2,5.240438E-1,-2.7063403E-2,1.2013106E0,6.052611E-1,1.2240591E-2,-4.3214187E-3,-2.385096E-2,1.8984098E-2,3.1794187E-2,-7.6400302E-3],"split_indices":[15,64,154,22,0,18,64,0,0,0,0,0,0],"split_type":[0,0,0,0,0,0,0,0,0,0,0,0,0],"sum_hessian":[3.4287357E1,1.5809008E1,1.8478352E1,2.2408583E0,1.3568149E1,3.8025563E0,1.4675796E1,1.0910064E0,1.1498519E0,2.5974126E0,1.2051436E0,1.3236933E1,1.4388623E0],"tree_param":{"num_deleted":"0","num_feature":"263","num_nodes":"13","size_leaf_vector":"1"}},{"base_weights":[1.4369436E-2,3.1165933E-2,-5.006596E-1,4.5608147E-3,-2.7092127E-2],"categories":[],"categories_nodes":[],"categories_segments":[],"categories_sizes":[],"default_left":[0,0,0,0,0],"id":76,"left_children":[1,-1,3,-1,-1],"loss_changes":[1.0330864E1,0E0,4.84807E-1,0E0,0E0],"parents":[2147483647,0,0,2,2],"right_children":[2,-1,4,-1,-1],"split_conditions":[-5.4359204E-1,3.1165933E-2,-3.796151E-1,4.5608147E-3,-2.7092127E-2],"split_indices":[12,0,26,0,0],"split_type":[0,0,0,0,0],"sum_hessian":[3.0944977E1,1.4083255E1,1.6861723E1,1.0178853E0,1.5843838E1],"tree_param":{"num_deleted":"0","num_feature":"263","num_nodes":"5","size_leaf_vector":"1"}},{"base_weights":[5.3601716E-2,-2.548647E-2,2.3026091E-1,3.8736928E-1,-2.3919316E-2,6.04596E-1,1.040955E-1,3.3453334E-2,-3.27972E-3,-2.739332E-1,4.879742E-1,1.0589542E-2,-2.4660358E-2,3.9281915E-3,2.8646393E-2],"categories":[],"categories_nodes":[],"categories_segments":[],"categories_sizes":[],"default_left":[0,0,0,0,0,0,0,0,0,0,0,0,0,0,0],"id":77,"left_children":[1,-1,3,5,-1,7,9,-1,-1,11,13,-1,-1,-1,-1],"loss_changes":[3.6249464E0,0E0,3.249271E0,1.357209E0,0E0,5.992842E-1,1.7625566E0,0E0,0E0,7.750079E-1,1.6119576E-1,0E0,0E0,0E0,0E0],"parents":[2147483647,0,0,2,2,3,3,5,5,6,6,9,9,10,10],"right_children":[2,-1,4,6,-1,8,10,-1,-1,12,14,-1,-1,-1,-1],"split_conditions":[-5.4359204E-1,-2.548647E-2,1.5823445E0,-1.2500913E-1,-2.3919316E-2,-2.985363E-1,-7.8808695E-2,3.3453334E-2,-3.27972E-3,-1.2782665E-1,-2.6143017E-1,1.0589542E-2,-2.4660358E-2,3.9281915E-3,2.8646393E-2],"split_indices":[12,0,12,62,0,236,64,0,0,18,12,0,0,0,0],"split_type":[0,0,0,0,0,0,0,0,0,0,0,0,0,0,0],"sum_hessian":[3.4245773E1,7.7254534E0,2.652032E1,2.2078783E1,4.441539E0,1.1854169E1,1.0224614E1,1.081543E1,1.0387398E0,5.2958627E0,4.9287515E0,1.6577744E0,3.6380882E0,1.177741E0,3.7510104E0],"tree_param":{"num_deleted":"0","num_feature":"263","num_nodes":"15","size_leaf_vector":"1"}},{"base_weights":[2.6151913E-3,3.3868453E-1,-2.6829297E-2,-3.0614907E-1,4.6400785E-1,-2.1184403E-2,1.6155344E-3,6.636619E-2,5.9116024E-1,-2.889952E-1,2.6466284E-2,3.8338085E-3,3.170452E-2,1.1210904E-3,-2.0429282E-2],"categories":[],"categories_nodes":[],"categories_segments":[],"categories_sizes":[],"default_left":[0,0,0,0,0,0,0,0,0,0,0,0,0,0,0],"id":78,"left_children":[1,3,-1,5,7,-1,-1,9,11,13,-1,-1,-1,-1,-1],"loss_changes":[6.583305E0,1.9503114E0,0E0,1.8250898E-1,9.281163E-1,0E0,0E0,1.1009293E0,2.6877403E-1,1.546554E-1,0E0,0E0,0E0,0E0,0E0],"parents":[2147483647,0,0,1,1,3,3,4,4,7,7,8,8,9,9],"right_children":[2,4,-1,6,8,-1,-1,10,12,14,-1,-1,-1,-1,-1],"split_conditions":[-3.7106803E-1,-1.5213168E0,-2.6829297E-2,-6.3494545E-1,8.672173E-1,-2.1184403E-2,1.6155344E-3,-1.1832709E0,-1.6437234E0,-6.202562E-1,2.6466284E-2,3.8338085E-3,3.170452E-2,1.1210904E-3,-2.0429282E-2],"split_indices":[16,43,0,19,12,0,0,80,20,40,0,0,0,0,0],"split_type":[0,0,0,0,0,0,0,0,0,0,0,0,0,0,0],"sum_hessian":[3.432702E1,2.1375887E1,1.295113E1,3.243588E0,1.81323E1,2.2206109E0,1.0229771E0,4.762027E0,1.3370273E1,2.9066713E0,1.8553557E0,1.2443055E0,1.2125967E1,1.0319512E0,1.8747201E0],"tree_param":{"num_deleted":"0","num_feature":"263","num_nodes":"15","size_leaf_vector":"1"}},{"base_weights":[1.3390962E-2,3.0665413E-2,-5.013946E-1,4.6036667E-3,-2.7030228E-2],"categories":[],"categories_nodes":[],"categories_segments":[],"categories_sizes":[],"default_left":[0,0,0,0,0],"id":79,"left_children":[1,-1,3,-1,-1],"loss_changes":[1.0711241E1,0E0,4.8446512E-1,0E0,0E0],"parents":[2147483647,0,0,2,2],"right_children":[2,-1,4,-1,-1],"split_conditions":[-5.4359204E-1,3.0665413E-2,-3.796151E-1,4.6036667E-3,-2.7030228E-2],"split_indices":[12,0,26,0,0],"split_type":[0,0,0,0,0],"sum_hessian":[3.26877E1,1.5007259E1,1.768044E1,1.0121808E0,1.666826E1],"tree_param":{"num_deleted":"0","num_feature":"263","num_nodes":"5","size_leaf_vector":"1"}},{"base_weights":[-6.554739E-3,5.655765E-1,-2.25403E-1,3.188226E-2,3.0078962E-3,-3.4758306E-1,1.8587522E-1,-4.1962034E-1,5.1755715E-2,-1.8500661E-2,4.0568987E-1,-4.7093016E-1,1.0809598E-2,1.7572118E-2,-1.6888503E-2,2.133037E-5,2.609158E-2,-3.858851E-3,-2.5835803E-2],"categories":[],"categories_nodes":[],"categories_segments":[],"categories_sizes":[],"default_left":[0,0,0,0,0,0,0,0,0,0,0,0,0,0,0,0,0,0,0],"id":80,"left_children":[1,3,5,-1,-1,7,9,11,13,-1,15,17,-1,-1,-1,-1,-1,-1,-1],"loss_changes":[4.5940247E0,3.315282E-1,1.3971168E0,0E0,0E0,6.1986446E-1,9.718545E-1,6.8005514E-1,5.9356403E-1,0E0,2.4906379E-1,2.6148105E-1,0E0,0E0,0E0,0E0,0E0,0E0,0E0],"parents":[2147483647,0,0,1,1,2,2,5,5,6,6,7,7,8,8,10,10,11,11],"right_children":[2,4,6,-1,-1,8,10,12,14,-1,16,18,-1,-1,-1,-1,-1,-1,-1],"split_conditions":[-1.5213168E0,5.5810094E-1,9.361851E-1,3.188226E-2,3.0078962E-3,1.9203593E-1,-2.7156827E-1,4.4681346E-1,5.8611035E-1,-1.8500661E-2,-7.1544224E-1,-1.7219867E0,1.0809598E-2,1.7572118E-2,-1.6888503E-2,2.133037E-5,2.609158E-2,-3.858851E-3,-2.5835803E-2],"split_indices":[43,79,0,0,0,41,75,144,9,0,52,85,0,0,0,0,0,0,0],"split_type":[0,0,0,0,0,0,0,0,0,0,0,0,0,0,0,0,0,0,0],"sum_hessian":[3.4672424E1,9.154816E0,2.551761E1,7.783354E0,1.3714617E0,1.9792612E1,5.724999E0,1.6724812E1,3.0678003E0,1.4286908E0,4.296308E0,1.5715871E1,1.0089402E0,1.7891011E0,1.278699E0,1.1805582E0,3.1157498E0,1.9168445E0,1.37990265E1],"tree_param":{"num_deleted":"0","num_feature":"263","num_nodes":"19","size_leaf_vector":"1"}},{"base_weights":[4.61516E-2,4.982092E-1,-3.886368E-1,5.93175E-1,-1.747347E-2,1.4345071E-2,-5.0709206E-1,3.0902429E-2,7.4975747E-3,-2.880663E-3,-2.6864797E-2],"categories":[],"categories_nodes":[],"categories_segments":[],"categories_sizes":[],"default_left":[0,0,0,0,0,0,0,0,0,0,0],"id":81,"left_children":[1,3,5,7,-1,-1,9,-1,-1,-1,-1],"loss_changes":[6.425426E0,1.4938996E0,1.4837174E0,6.9859505E-2,0E0,0E0,1.6711664E-1,0E0,0E0,0E0,0E0],"parents":[2147483647,0,0,1,1,2,2,3,3,6,6],"right_children":[2,4,6,8,-1,-1,10,-1,-1,-1,-1],"split_conditions":[-1.1280024E0,1.325112E-1,-1.6686172E0,6.8997204E-1,-1.747347E-2,1.4345071E-2,-1.5160286E0,3.0902429E-2,7.4975747E-3,-2.880663E-3,-2.6864797E-2],"split_indices":[81,58,75,5,0,0,34,0,0,0,0],"split_type":[0,0,0,0,0,0,0,0,0,0,0],"sum_hessian":[3.0706045E1,1.4982547E1,1.5723499E1,1.3743134E1,1.2394134E0,2.1336262E0,1.3589873E1,1.2639377E1,1.1037569E0,1.0387785E0,1.2551095E1],"tree_param":{"num_deleted":"0","num_feature":"263","num_nodes":"11","size_leaf_vector":"1"}},{"base_weights":[-9.659532E-3,-4.7855663E-1,3.0465627E-2,-2.6945356E-2,9.04506E-3],"categories":[],"categories_nodes":[],"categories_segments":[],"categories_sizes":[],"default_left":[0,0,0,0,0],"id":82,"left_children":[1,3,-1,-1,-1],"loss_changes":[9.82819E0,8.638382E-1,0E0,0E0,0E0],"parents":[2147483647,0,0,1,1],"right_children":[2,4,-1,-1,-1],"split_conditions":[3.8597725E-2,6.6596645E-1,3.0465627E-2,-2.6945356E-2,9.04506E-3],"split_indices":[23,91,0,0,0],"split_type":[0,0,0,0,0],"sum_hessian":[3.1858288E1,1.8255693E1,1.3602594E1,1.6892569E1,1.3631258E0],"tree_param":{"num_deleted":"0","num_feature":"263","num_nodes":"5","size_leaf_vector":"1"}},{"base_weights":[3.1404197E-2,-2.5223007E-2,2.0559037E-1,5.8050036E-1,-6.1533026E-2,3.1468004E-2,3.963692E-3,-3.4356803E-1,2.8641868E-1,-4.443107E-1,1.18598435E-2,4.8832375E-1,-1.8271428E-2,-3.764633E-4,-2.5852485E-2,3.995219E-3,2.8134063E-2],"categories":[],"categories_nodes":[],"categories_segments":[],"categories_sizes":[],"default_left":[0,0,0,0,0,0,0,0,0,0,0,0,0,0,0,0,0],"id":83,"left_children":[1,-1,3,5,7,-1,-1,9,11,13,-1,15,-1,-1,-1,-1,-1],"loss_changes":[3.3519206E0,0E0,2.737017E0,2.2729135E-1,1.7328321E0,0E0,0E0,6.7019117E-1,1.2315376E0,2.685275E-1,0E0,1.535697E-1,0E0,0E0,0E0,0E0,0E0],"parents":[2147483647,0,0,2,2,3,3,4,4,7,7,8,8,9,9,11,11],"right_children":[2,-1,4,6,8,-1,-1,10,12,14,-1,16,-1,-1,-1,-1,-1],"split_conditions":[-5.4359204E-1,-2.5223007E-2,5.2868104E-1,5.0065744E-1,-1.1280024E0,3.1468004E-2,3.963692E-3,-1.113931E0,-1.3570373E0,-2.441125E0,1.18598435E-2,-8.673584E-1,-1.8271428E-2,-3.764633E-4,-2.5852485E-2,3.995219E-3,2.8134063E-2],"split_indices":[12,0,252,204,81,0,0,43,43,75,0,56,0,0,0,0,0],"split_type":[0,0,0,0,0,0,0,0,0,0,0,0,0,0,0,0,0],"sum_hessian":[3.3799694E1,7.826436E0,2.5973257E1,1.0318291E1,1.5654965E1,9.168866E0,1.1494246E0,8.653445E0,7.0015197E0,7.574489E0,1.0789567E0,5.537256E0,1.4642643E0,1.2388684E0,6.3356204E0,1.1723807E0,4.364875E0],"tree_param":{"num_deleted":"0","num_feature":"263","num_nodes":"17","size_leaf_vector":"1"}},{"base_weights":[1.7078904E-2,3.8051566E-1,-2.6209692E-2,-3.2673422E-1,5.37861E-1,-4.167523E-3,-1.9467091E-2,-5.7186945E-3,6.0450584E-1,3.169633E-2,8.078263E-3],"categories":[],"categories_nodes":[],"categories_segments":[],"categories_sizes":[],"default_left":[0,0,0,0,0,0,0,0,0,0,0],"id":84,"left_children":[1,3,-1,5,7,-1,-1,-1,9,-1,-1],"loss_changes":[6.0354176E0,2.2153676E0,0E0,2.785328E-2,7.372775E-1,0E0,0E0,0E0,8.138943E-2,0E0,0E0],"parents":[2147483647,0,0,1,1,3,3,4,4,8,8],"right_children":[2,4,-1,6,8,-1,-1,-1,10,-1,-1],"split_conditions":[-3.7106803E-1,-1.2782665E-1,-2.6209692E-2,-7.4803704E-1,-4.4834727E-1,-4.167523E-3,-1.9467091E-2,-5.7186945E-3,-1.113931E0,3.169633E-2,8.078263E-3],"split_indices":[16,18,0,260,137,0,0,0,43,0,0],"split_type":[0,0,0,0,0,0,0,0,0,0,0],"sum_hessian":[2.8666534E1,1.7328403E1,1.1338132E1,2.9576325E0,1.437077E1,1.0821493E0,1.8754833E0,1.2658699E0,1.31049E1,1.1884349E1,1.2205522E0],"tree_param":{"num_deleted":"0","num_feature":"263","num_nodes":"11","size_leaf_vector":"1"}},{"base_weights":[-1.943106E-2,-4.6776277E-1,2.9822964E-2,1.2675352E-2,-2.6638417E-2],"categories":[],"categories_nodes":[],"categories_segments":[],"categories_sizes":[],"default_left":[0,0,0,0,0],"id":85,"left_children":[1,3,-1,-1,-1],"loss_changes":[8.393011E0,9.586942E-1,0E0,0E0,0E0],"parents":[2147483647,0,0,1,1],"right_children":[2,4,-1,-1,-1],"split_conditions":[3.8597725E-2,-2.153336E0,2.9822964E-2,1.2675352E-2,-2.6638417E-2],"split_indices":[23,47,0,0,0],"split_type":[0,0,0,0,0],"sum_hessian":[2.8385473E1,1.656653E1,1.1818943E1,1.1299031E0,1.5436626E1],"tree_param":{"num_deleted":"0","num_feature":"263","num_nodes":"5","size_leaf_vector":"1"}},{"base_weights":[-1.4643445E-2,4.379315E-1,-1.9235249E-1,5.540989E-1,-1.4192769E-2,-2.700753E-1,2.0770473E-2,5.100493E-3,3.0298958E-2,-3.6336786E-1,1.8223456E-1,-4.153741E-1,9.529355E-3,2.2199875E-2,-9.025973E-3,1.588931E-3,-2.289365E-2],"categories":[],"categories_nodes":[],"categories_segments":[],"categories_sizes":[],"default_left":[0,0,0,0,0,0,0,0,0,0,0,0,0,0,0,0,0],"id":86,"left_children":[1,3,5,7,-1,9,-1,-1,-1,11,13,15,-1,-1,-1,-1,-1],"loss_changes":[2.7753012E0,9.7389865E-1,1.2799199E0,1.4288998E-1,0E0,1.0166551E0,0E0,0E0,0E0,6.267226E-1,5.0909543E-1,3.5071635E-1,0E0,0E0,0E0,0E0,0E0],"parents":[2147483647,0,0,1,1,2,2,3,3,5,5,9,9,10,10,11,11],"right_children":[2,4,6,8,-1,10,-1,-1,-1,12,14,16,-1,-1,-1,-1,-1],"split_conditions":[-1.5213168E0,3.8597725E-2,-6.691112E-1,-5.992199E-1,-1.4192769E-2,1.9203593E-1,2.0770473E-2,5.100493E-3,3.0298958E-2,2.4535275E0,-1.6153899E-1,-1.855516E0,9.529355E-3,2.2199875E-2,-9.025973E-3,1.588931E-3,-2.289365E-2],"split_indices":[43,23,43,33,0,41,0,0,0,259,36,9,0,0,0,0,0],"split_type":[0,0,0,0,0,0,0,0,0,0,0,0,0,0,0,0,0],"sum_hessian":[3.2459846E1,8.739213E0,2.3720634E1,7.7277927E0,1.01142E0,2.1523726E1,2.196909E0,1.1008797E0,6.626913E0,1.80064E1,3.5173256E0,1.6689709E1,1.3166922E0,1.9129672E0,1.6043583E0,1.4704623E0,1.5219246E1],"tree_param":{"num_deleted":"0","num_feature":"263","num_nodes":"17","size_leaf_vector":"1"}},{"base_weights":[-2.485776E-3,-3.93704E-1,4.450872E-1,1.4742742E-1,-4.813077E-1,3.016061E-2,-2.3442578E-2,1.2095858E-2,-9.528929E-4,2.675692E-3,-2.6345912E-2,-1.7187737E-2,2.0188624E-2],"categories":[],"categories_nodes":[],"categories_segments":[],"categories_sizes":[],"default_left":[0,0,0,0,0,0,0,0,0,0,0,0,0],"id":87,"left_children":[1,3,5,7,9,-1,11,-1,-1,-1,-1,-1,-1],"loss_changes":[5.7002625E0,8.9426684E-1,1.1392365E0,5.4720245E-2,3.9854217E-1,0E0,7.9489905E-1,0E0,0E0,0E0,0E0,0E0,0E0],"parents":[2147483647,0,0,1,1,2,2,3,3,4,4,6,6],"right_children":[2,4,6,8,10,-1,12,-1,-1,-1,-1,-1,-1],"split_conditions":[8.672173E-1,-1.242132E0,1.6084538E0,6.504937E-1,-1.8792276E0,3.016061E-2,-6.4763415E-1,1.2095858E-2,-9.528929E-4,2.675692E-3,-2.6345912E-2,-1.7187737E-2,2.0188624E-2],"split_indices":[12,16,53,0,10,0,42,0,0,0,0,0,0],"split_type":[0,0,0,0,0,0,0,0,0,0,0,0,0],"sum_hessian":[3.0553802E1,1.6367512E1,1.4186291E1,2.1853888E0,1.4182123E1,1.0391714E1,3.7945766E0,1.105099E0,1.0802898E0,1.1008189E0,1.3081305E1,2.2802658E0,1.5143111E0],"tree_param":{"num_deleted":"0","num_feature":"263","num_nodes":"13","size_leaf_vector":"1"}},{"base_weights":[-8.632035E-3,2.9564282E-2,-4.9105018E-1,-2.6517345E-2,1.9994504E-3],"categories":[],"categories_nodes":[],"categories_segments":[],"categories_sizes":[],"default_left":[0,0,0,0,0],"id":88,"left_children":[1,-1,3,-1,-1],"loss_changes":[9.224604E0,0E0,3.8967943E-1,0E0,0E0],"parents":[2147483647,0,0,2,2],"right_children":[2,-1,4,-1,-1],"split_conditions":[-5.4359204E-1,2.9564282E-2,1.5825807E-1,-2.6517345E-2,1.9994504E-3],"split_indices":[12,0,233,0,0],"split_type":[0,0,0,0,0],"sum_hessian":[2.9870447E1,1.3213254E1,1.6657192E1,1.551071E1,1.1464835E0],"tree_param":{"num_deleted":"0","num_feature":"263","num_nodes":"5","size_leaf_vector":"1"}},{"base_weights":[2.7947541E-2,-2.4853168E-2,1.9850105E-1,-2.4101453E-2,3.5987538E-1,-9.038902E-2,4.6780413E-1,1.3954115E-2,-2.0408096E-2,5.544774E-1,-6.385542E-2,-2.5345534E-4,2.9995153E-2,1.4757501E-2,-1.7272769E-2],"categories":[],"categories_nodes":[],"categories_segments":[],"categories_sizes":[],"default_left":[0,0,0,0,0,0,0,0,0,0,0,0,0,0,0],"id":89,"left_children":[1,-1,3,-1,5,7,9,-1,-1,11,13,-1,-1,-1,-1],"loss_changes":[3.0976155E0,0E0,3.0281622E0,0E0,1.0912044E0,7.022974E-1,8.451736E-1,0E0,0E0,3.8971758E-1,4.4163886E-1,0E0,0E0,0E0,0E0],"parents":[2147483647,0,0,2,2,4,4,5,5,6,6,9,9,10,10],"right_children":[2,-1,4,-1,6,8,10,-1,-1,12,14,-1,-1,-1,-1],"split_conditions":[-5.4359204E-1,-2.4853168E-2,-1.2763087E0,-2.4101453E-2,-1.4469483E0,8.672173E-1,1.2013106E0,1.3954115E-2,-2.0408096E-2,-1.5487719E0,-5.15739E-1,-2.5345534E-4,2.9995153E-2,1.4757501E-2,-1.7272769E-2],"split_indices":[12,0,16,0,64,12,18,0,0,76,37,0,0,0,0],"split_type":[0,0,0,0,0,0,0,0,0,0,0,0,0,0,0],"sum_hessian":[3.249191E1,7.4976506E0,2.4994259E1,4.4099746E0,2.0584284E1,4.0114703E0,1.6572813E1,1.9111506E0,2.1003199E0,1.4212858E1,2.3599555E0,1.1339109E0,1.3078947E1,1.0162469E0,1.3437086E0],"tree_param":{"num_deleted":"0","num_feature":"263","num_nodes":"15","size_leaf_vector":"1"}},{"base_weights":[1.2183741E-2,3.2633105E-1,-2.6133446E-2,-2.9807758E-1,4.6713176E-1,3.7729014E-3,-2.125991E-2,-5.6919376E-3,5.167535E-1,5.938995E-1,1.5945277E-1,3.0790254E-2,8.286396E-3,2.181073E-2,-1.0986954E-2],"categories":[],"categories_nodes":[],"categories_segments":[],"categories_sizes":[],"default_left":[0,0,0,0,0,0,0,0,0,0,0,0,0,0,0],"id":90,"left_children":[1,3,-1,5,7,-1,-1,-1,9,11,13,-1,-1,-1,-1],"loss_changes":[5.7182965E0,2.022091E0,0E0,2.4818939E-1,5.7385445E-1,0E0,0E0,0E0,3.6396503E-1,2.2858143E-2,5.494084E-1,0E0,0E0,0E0,0E0],"parents":[2147483647,0,0,1,1,3,3,4,4,8,8,9,9,10,10],"right_children":[2,4,-1,6,8,-1,-1,-1,10,12,14,-1,-1,-1,-1],"split_conditions":[-3.7106803E-1,-1.2782665E-1,-2.6133446E-2,-8.13128E-1,-4.4834727E-1,3.7729014E-3,-2.125991E-2,-5.6919376E-3,7.128708E-1,8.0868787E-1,-1.265279E0,3.0790254E-2,8.286396E-3,2.181073E-2,-1.0986954E-2],"split_indices":[16,18,0,77,137,0,0,0,48,46,9,0,0,0,0],"split_type":[0,0,0,0,0,0,0,0,0,0,0,0,0,0,0],"sum_hessian":[3.20178E1,2.041617E1,1.160163E1,3.5510998E0,1.686507E1,1.0048422E0,2.5462575E0,1.2252874E0,1.5639782E1,1.2317982E1,3.3218005E0,1.1301564E1,1.016417E0,1.8333259E0,1.4884747E0],"tree_param":{"num_deleted":"0","num_feature":"263","num_nodes":"15","size_leaf_vector":"1"}},{"base_weights":[-6.833791E-2,-4.956267E-1,2.8958816E-2,-2.6287694E-2,-1.4269137E-3],"categories":[],"categories_nodes":[],"categories_segments":[],"categories_sizes":[],"default_left":[0,0,0,0,0],"id":91,"left_children":[1,3,-1,-1,-1],"loss_changes":[7.7747145E0,2.2201014E-1,0E0,0E0,0E0],"parents":[2147483647,0,0,1,1],"right_children":[2,4,-1,-1,-1],"split_conditions":[3.8597725E-2,3.818153E-2,2.8958816E-2,-2.6287694E-2,-1.4269137E-3],"split_indices":[23,23,0,0,0],"split_type":[0,0,0,0,0],"sum_hessian":[2.606296E1,1.5842925E1,1.0220034E1,1.4764987E1,1.0779384E0],"tree_param":{"num_deleted":"0","num_feature":"263","num_nodes":"5","size_leaf_vector":"1"}},{"base_weights":[-8.468801E-3,4.745645E-1,-1.8961617E-1,2.8120074E-2,-4.8567667E-3,-4.6413487E-1,-8.789398E-3,-2.504876E-2,-5.315263E-3,2.7203226E-1,-3.8898617E-1,-2.0215559E-1,2.6316402E-2,7.1835227E-4,-2.4018288E-2,-2.21832E-2,9.997888E-3],"categories":[],"categories_nodes":[],"categories_segments":[],"categories_sizes":[],"default_left":[0,0,0,0,0,0,0,0,0,0,0,0,0,0,0,0,0],"id":92,"left_children":[1,3,5,-1,-1,7,9,-1,-1,11,13,15,-1,-1,-1,-1,-1],"loss_changes":[2.9629953E0,5.1866174E-1,1.2167583E0,0E0,0E0,7.5238466E-2,1.7976902E0,0E0,0E0,1.2763985E0,2.702005E-1,4.878028E-1,0E0,0E0,0E0,0E0,0E0],"parents":[2147483647,0,0,1,1,2,2,5,5,6,6,9,9,10,10,11,11],"right_children":[2,4,6,-1,-1,8,10,-1,-1,12,14,16,-1,-1,-1,-1,-1],"split_conditions":[-1.5213168E0,7.9575926E-1,8.7418413E-1,2.8120074E-2,-4.8567667E-3,-1.0683084E0,8.672173E-1,-2.504876E-2,-5.315263E-3,2.091266E-1,-1.8481649E0,-1.2439219E0,2.6316402E-2,7.1835227E-4,-2.4018288E-2,-2.21832E-2,9.997888E-3],"split_indices":[43,81,260,0,0,43,12,0,0,32,36,43,0,0,0,0,0],"split_type":[0,0,0,0,0,0,0,0,0,0,0,0,0,0,0,0,0],"sum_hessian":[3.1834326E1,8.240661E0,2.3593666E1,7.1572685E0,1.0833915E0,8.747333E0,1.4846333E1,7.568119E0,1.1792136E0,8.702771E0,6.1435614E0,3.1094973E0,5.593274E0,1.2904109E0,4.8531504E0,1.8781523E0,1.2313452E0],"tree_param":{"num_deleted":"0","num_feature":"263","num_nodes":"17","size_leaf_vector":"1"}},{"base_weights":[-2.478941E-2,-3.9977905E-1,4.0255114E-1,1.1728321E-1,-4.9077922E-1,-2.0796578E-1,5.0852627E-1,-1.4903377E-2,2.2425761E-2,-2.6391719E-2,7.189013E-4,-1.633335E-2,7.147393E-4,2.0189395E-3,5.48353E-1,3.5826953E-3,2.9470462E-2],"categories":[],"categories_nodes":[],"categories_segments":[],"categories_sizes":[],"default_left":[0,0,0,0,0,0,0,0,0,0,0,0,0,0,0,0,0],"id":93,"left_children":[1,3,5,7,9,11,13,-1,-1,-1,-1,-1,-1,-1,15,-1,-1],"loss_changes":[5.352727E0,8.9312005E-1,1.1176915E0,6.103525E-1,2.9385805E-1,8.442706E-2,2.3175168E-1,0E0,0E0,0E0,0E0,0E0,0E0,0E0,2.0182824E-1,0E0,0E0],"parents":[2147483647,0,0,1,1,2,2,3,3,4,4,5,5,6,6,14,14],"right_children":[2,4,6,8,10,12,14,-1,-1,-1,-1,-1,-1,-1,16,-1,-1],"split_conditions":[8.672173E-1,-1.6451191E0,-1.5213168E0,-1.7454718E0,